tree
version=v4
num_class=1
num_tree_per_iteration=1
label_index=0
max_feature_idx=4
objective=regression
feature_names=bedrooms area location_encoded district_encoded bedroom_density
feature_infos=[0:155] [4:109110] [0:22] [0:21] [0:1]
tree_sizes=4999 4542 4456 4788 4629 5260 5296 5292 5211 5048 4968 5040 5221 5299 5309 4508 3826 3671 4661 4558 4892 4748 4740 4748 4016 4185 4099 5249 4687 5257 4605 4608 4603 4203 4126 4868 3727 3722 5357 3954 4443 3968 5140 5050 5051 5229 5222 4903 2654 2749 2660 2810 2813 2807 2558 2298 2298 3072 3074 2661 2550 2476 2556 3571 5176 3665 3821 3141 4391 3800 3811 3405 4331 4418 4000 2646 2204 2644 2411

Tree=0
num_leaves=62
num_cat=0
split_feature=1 3 1 1 3 2 1 2 2 3 1 1 1 2 0 2 4 0 2 4 0 4 2 1 1 1 2 3 2 1 3 1 2 1 3 4 2 0 4 2 2 4 2 1 4 1 1 4 1 1 1 2 1 1 4 2 4 4 1 2 0
split_gain=1.29927e+06 796786 841218 292577 134718 75750 52568.2 50428.2 47615.9 40542.1 30360.1 21671.2 20894 19826.2 19811.1 16700.2 16295.6 16194.9 8659.37 6888.29 7304.6 6813.94 4899.03 4825.6 3781.25 3599.99 3434.06 2997.07 2938.69 2596.55 2162.43 2105.23 1723.35 1436.51 1351.02 1252.94 1231.8 1218.38 1167.7 1014.85 959.378 919.037 916.847 1301.1 838.792 785.065 781.234 674.711 628.311 607.828 379.601 326.371 316.911 310.218 269.958 266.158 184.506 114.213 95.8158 65.012 54.8464
threshold=307.50000000000006 8.5000000000000018 534.50000000000011 125.50000000000001 5.5000000000000009 13.500000000000002 236.50000000000003 5.5000000000000009 11.500000000000002 1.5000000000000002 63.850000000000009 179.50000000000003 402.00000000000006 9.5000000000000018 5.5000000000000009 7.5000000000000009 0.15075757575757578 4.5000000000000009 14.500000000000002 0.010035246727089629 3.5000000000000004 0.049975024975024984 8.5000000000000018 87.15000000000002 97.100000000000009 882.50000000000011 16.500000000000004 17.500000000000004 5.5000000000000009 86.200000000000017 7.5000000000000009 53.350000000000009 2.5000000000000004 200.50000000000003 14.500000000000002 0.012579113924050636 5.5000000000000009 13.500000000000002 0.015189970773727121 19.500000000000004 18.500000000000004 0.066815476190476203 12.500000000000002 57.150000000000006 0.065681622088006916 103.15000000000002 112.15000000000002 0.028490259740259743 68.100000000000009 85.90000000000002 96.15000000000002 19.500000000000004 35.050000000000004 89.850000000000009 0.095005938242280305 1.5000000000000002 0.076018161805173387 0.070298986903879437 182.50000000000003 19.500000000000004 2.5000000000000004
decision_type=2 2 2 2 2 2 2 2 2 2 2 2 2 2 2 2 2 2 2 2 2 2 2 2 2 2 2 2 2 2 2 2 2 2 2 2 2 2 2 2 2 2 2 2 2 2 2 2 2 2 2 2 2 2 2 2 2 2 2 2 2
left_child=3 2 17 9 6 25 7 -5 27 10 31 21 -7 15 16 -9 19 -2 -13 30 32 35 -17 28 -22 -3 -20 34 44 42 49 52 -21 -28 58 -10 -33 45 -8 -23 -37 47 43 -16 -12 50 -47 -25 59 -11 -31 -50 60 -32 -45 -36 -54 -30 -6 -44 -1
right_child=1 5 -4 4 8 12 38 13 11 14 23 18 -14 -15 29 22 -18 -19 26 20 24 39 -24 41 -26 -27 33 -29 57 37 53 36 -34 -35 55 40 -38 -39 -40 -41 -42 -43 48 54 -46 46 -48 -49 51 -51 -52 -53 56 -55 -56 -57 -58 -59 -60 -61 -62
leaf_value=18.029552114085906 20.723523571907887 18.172298542592621 28.621952065731211 20.227320570788745 18.16598802519173 19.420507849190329 20.642852153922242 19.309297588806835 18.66658412068896 18.370394972362103 18.641623545109638 19.527893318229278 20.729343447124521 19.627483388519657 18.221232115174455 18.180044972014691 18.915124844814464 21.809762151147051 18.615932123041524 17.936560472428212 18.120260649082415 18.748502118642254 18.715908003607193 19.012679401839897 18.287759755769954 18.685120306408436 18.869809264872167 18.38925211559771 18.403509254627409 18.437265156024516 18.15149057668307 18.526911202459747 18.048065154043318 19.177567515003879 17.950275192624989 18.374612926665986 18.237106663165342 18.677552119518442 20.318672146404907 19.035212122250719 18.58956811959855 19.132679396150362 18.143952114900458 18.40609497299306 18.885630241612716 18.626420117641612 18.384150814640471 18.777724844177236 18.247649545047377 18.576139617319033 18.277483364659172 18.393126030366396 18.119603542727496 18.290407332320914 18.560100610132142 18.064232114799797 18.218479386798933 18.502452112608136 18.252664616609735 18.209423540225465 18.095939611698313
leaf_weight=21 21 28 20 38 22 21 20 33 25 28 21 34 23 32 30 28 22 30 20 140 908 20 34 22 140 22 21 38 21 23 39 22 1145 39 39 74 33 20 20 25 25 22 39 21 32 25 23 22 35 24 32 23 35 23 20 35 33 21 24 21 24
leaf_count=21 21 28 20 38 22 21 20 33 25 28 21 34 23 32 30 28 22 30 20 140 908 20 34 22 140 22 21 38 21 23 39 22 1145 39 39 74 33 20 20 25 25 22 39 21 32 25 23 22 35 24 32 23 35 23 20 35 33 21 24 21 24
internal_value=18.4031 21.0087 23.4074 18.2887 18.8696 19.1968 19.5051 19.2685 18.5743 18.168 18.4829 18.8072 20.1047 18.9816 18.1308 18.7641 18.1023 21.3625 19.1268 18.095 18.0839 18.5916 18.4739 18.7773 18.1426 18.3979 18.9564 18.1571 18.6404 18.356 18.3227 18.2008 18.0359 19.0699 18.0835 18.4768 18.353 18.4633 20.4808 18.9078 18.4289 18.9744 18.2862 18.3714 18.7889 18.4217 18.5103 18.8952 18.2349 18.4654 18.3443 18.3053 18.1267 18.203 18.4812 18.0042 18.1676 18.453 18.2112 18.1669 18.065
internal_weight=3921 165 71 3756 646 94 205 165 441 3110 329 283 44 127 2781 95 2469 51 114 2447 2333 169 62 161 1048 50 80 158 95 312 114 168 1285 60 120 124 55 123 40 45 99 66 189 71 53 103 48 44 118 52 55 58 113 62 41 74 68 42 46 60 45
internal_count=3921 165 71 3756 646 94 205 165 441 3110 329 283 44 127 2781 95 2469 51 114 2447 2333 169 62 161 1048 50 80 158 95 312 114 168 1285 60 120 124 55 123 40 45 99 66 189 71 53 103 48 44 118 52 55 58 113 62 41 74 68 42 46 60 45
is_linear=0
shrinkage=1


Tree=1
num_leaves=54
num_cat=0
split_feature=1 3 1 1 3 2 3 1 2 2 0 1 1 2 1 4 2 2 4 1 0 2 0 4 1 3 3 0 1 1 2 4 1 2 1 4 0 3 2 3 4 2 2 1 1 2 4 2 2 1 0 4 4
split_gain=1.22248e+06 749696 791502 275818 111426 71674.6 55242.9 44349.6 42220.4 41364.6 29393.7 24142.2 22078.9 15875.5 15825.7 14351.4 14201 10890.6 9768.1 8328.33 7575.69 7020.9 6662.17 5677.15 4076.87 3829.56 3626.27 3522.02 2581.2 2415.05 1914.01 1848.19 1744.33 1739.35 1466.93 1188.44 1154.62 1150.92 2733.26 1111.9 1098.69 1038.51 663.217 583.77 532.842 363.661 584.066 352.589 226.363 215.404 116.466 66.2426 6.0084
threshold=307.50000000000006 8.5000000000000018 534.50000000000011 139.70000000000002 5.5000000000000009 2.5000000000000004 1.0000000180025095e-35 236.50000000000003 11.500000000000002 5.5000000000000009 5.5000000000000009 63.850000000000009 476.50000000000006 8.5000000000000018 200.50000000000003 0.15075757575757578 9.5000000000000018 7.5000000000000009 0.010035246727089629 109.50000000000001 3.5000000000000004 14.500000000000002 9.5000000000000018 0.05337606837606839 95.100000000000009 17.500000000000004 7.5000000000000009 1.0000000180025095e-35 117.20000000000002 53.350000000000009 5.5000000000000009 0.10269593303012327 80.90000000000002 16.500000000000004 787.50000000000011 0.023134767715692572 4.5000000000000009 7.5000000000000009 9.5000000000000018 14.500000000000002 0.015189970773727121 19.500000000000004 19.500000000000004 99.750000000000014 164.50000000000003 12.500000000000002 0.12333621434745032 14.500000000000002 1.5000000000000002 39.750000000000007 7.5000000000000009 0.10425724637681161 0.020006671114076054
decision_type=2 2 2 2 2 2 2 2 2 2 2 2 2 2 2 2 2 2 2 2 2 2 2 2 2 2 2 2 2 2 2 2 2 2 2 2 2 2 2 2 2 2 2 2 2 2 2 2 2 2 2 2 2
left_child=3 2 13 6 7 34 11 9 25 -5 15 29 -7 -2 23 18 17 -11 26 36 30 -16 31 27 -22 39 32 -10 43 49 -20 37 -8 -29 -3 -19 -13 38 -12 52 -9 -39 -23 -24 -25 46 -33 -28 -41 -1 -47 -38 -6
right_child=1 5 -4 4 8 12 10 40 14 16 22 19 -14 -15 21 -17 -18 35 20 -21 24 42 28 44 -26 -27 47 33 -30 -31 -32 45 -34 -35 -36 -37 51 41 -40 48 -42 -43 -44 -45 -46 50 -48 -49 -50 -51 -52 -53 -54
leaf_value=-0.33518865433606232 2.2826580786186712 -0.28261678405430002 9.908341501235963 1.9755803524017335 -0.1963488994538784 0.98428610252482551 -0.056297170274397901 2.1686144220829009 0.51562059713446573 0.85020231485366815 -0.059074191147318253 0.27962401502662232 2.2542874847758898 3.3463770445755547 1.2609359332648191 0.4606060958038205 1.1933823769668053 -0.025040551986206663 -0.43028988654643419 1.0587054026814608 -0.27349776446102153 0.54450638892457759 0.059878166684586752 0.48429427957534787 -0.11972241633481556 0.083474162467594801 -0.30706632835524417 -0.023274547664486632 0.50450114001398494 0.11615175733850761 -0.33684476910788663 -0.013673979204434614 0.23948385936649222 0.22949915513700367 0.064183026850223535 0.27199901905324725 0.49369534566484646 -0.14364932370185854 0.3044253503248609 -0.44148098772222344 1.8541598653793334 0.038648448854684825 0.76222296953201296 0.26011755524575708 0.70328231844305988 -0.27064376235008236 -0.20379701465368272 -0.15968240375630557 -0.3255091028554099 -0.20243339733643964 -0.1771828830242157 0.56365801845278063 -0.1730947466790676
leaf_weight=22 23 23 20 25 20 28 34 20 23 32 52 27 22 28 22 23 29 22 239 26 936 34 38 20 186 29 21 49 23 22 1130 26 38 49 21 27 29 75 29 33 20 45 20 20 20 28 33 48 28 22 21 21 20
leaf_count=22 23 23 20 25 20 28 34 20 23 32 52 27 22 28 22 23 29 22 239 26 936 34 38 20 186 29 21 49 23 22 1130 26 38 49 21 27 29 75 29 33 20 45 20 20 20 28 33 48 28 22 21 21 20
internal_value=-0.00390302 2.52345 4.85023 -0.114929 0.511099 0.765979 -0.2205 1.13402 0.214068 0.874053 -0.249801 0.307443 1.54309 2.86666 0.45238 -0.285525 0.623706 0.419748 -0.292045 0.594468 -0.305795 0.809188 -0.00660637 0.283949 -0.248006 -0.220394 -0.0491267 0.181523 0.235571 -0.14049 -0.353158 -0.0700897 0.0998095 0.103112 -0.117099 0.138634 0.437712 -0.0163087 0.0710676 -0.307644 2.01139 -0.0752877 0.625142 0.128926 0.593788 -0.170182 -0.120014 -0.204538 -0.388248 -0.268811 -0.230589 0.52308 -0.184722
internal_weight=3921 165 71 3756 542 94 3214 175 367 135 3045 169 50 51 237 2655 110 81 2632 103 2491 76 390 161 1122 130 141 121 81 66 1369 309 72 98 44 49 77 201 81 101 40 120 54 58 40 108 59 69 61 44 49 50 40
internal_count=3921 165 71 3756 542 94 3214 175 367 135 3045 169 50 51 237 2655 110 81 2632 103 2491 76 390 161 1122 130 141 121 81 66 1369 309 72 98 44 49 77 201 81 101 40 120 54 58 40 108 59 69 61 44 49 50 40
is_linear=0
shrinkage=0.03


Tree=2
num_leaves=53
num_cat=0
split_feature=1 3 1 1 3 2 3 2 1 2 0 1 1 2 0 0 4 1 1 1 0 2 1 1 3 1 3 1 4 1 2 4 1 0 0 3 1 4 0 3 1 2 2 1 1 2 1 1 1 2 2 2
split_gain=1.15023e+06 705389 744724 259612 88254.1 67735.1 61584.2 37432.4 34166.9 35306.1 33406.6 27468.8 18746.6 17368.7 15198.3 14388.4 13765.2 9766.05 8725.03 8482.56 7782.37 6605.97 5922.08 5578.56 5170.31 4837.15 3590.79 3210.01 2901.04 2298.43 2177.2 1913.35 1897.93 1783 1609.05 1501.62 1351.77 1033.75 987.725 827.152 740.586 725.429 672.317 834.038 644.202 624.021 483.976 202.674 198.947 194.433 171.385 78.4512
threshold=307.50000000000006 8.5000000000000018 534.50000000000011 154.40000000000003 5.5000000000000009 13.500000000000002 1.0000000180025095e-35 11.500000000000002 236.50000000000003 6.5000000000000009 5.5000000000000009 90.250000000000014 402.00000000000006 9.5000000000000018 4.5000000000000009 1.0000000180025095e-35 0.15075757575757578 53.350000000000009 103.15000000000002 200.50000000000003 3.5000000000000004 14.500000000000002 126.20000000000002 95.100000000000009 7.5000000000000009 103.15000000000002 17.500000000000004 882.50000000000011 0.05337606837606839 187.50000000000003 5.5000000000000009 0.022756041426927508 67.950000000000017 9.5000000000000018 4.5000000000000009 1.5000000000000002 121.50000000000001 0.015189970773727121 10.500000000000002 14.500000000000002 66.050000000000011 11.500000000000002 12.500000000000002 57.150000000000006 107.10000000000001 19.500000000000004 72.050000000000011 39.750000000000007 124.10000000000001 18.500000000000004 1.5000000000000002 19.500000000000004
decision_type=2 2 2 2 2 2 2 2 2 2 2 2 2 2 2 2 2 2 2 2 2 2 2 2 2 2 2 2 2 2 2 2 2 2 2 2 2 2 2 2 2 2 2 2 2 2 2 2 2 2 2 2
left_child=3 2 14 6 8 27 11 26 9 -5 15 17 -7 29 -2 24 20 47 32 28 30 -21 -13 -22 25 40 39 -3 31 -11 -17 -9 42 41 -19 -34 -35 -10 -37 -6 -8 -20 43 -12 49 -23 -36 -1 -43 -26 -41 -44
right_child=1 5 -4 4 7 12 10 19 37 13 18 22 -14 -15 -16 16 -18 34 33 21 23 45 -24 -25 44 -27 -28 -29 -30 -31 -32 -33 35 36 46 38 -38 -39 -40 50 -42 48 51 -45 -46 -47 -48 -49 -50 -51 -52 -53
leaf_value=-0.32513299681923602 2.1616704082489013 -0.22552006755556378 9.6110912132263184 1.8436656718783908 -0.16558146576727589 0.95341190133775977 -0.12122391470840999 0.4079463784396648 2.1035559618473054 0.070142565415455743 -0.17922677891595024 0.66796123445034028 2.1931650217201395 1.2606783653342206 3.2139541965126992 -0.41708579835470988 0.44678787620171251 0.13920071633861344 -0.0086316557811654121 1.2231078412316063 -0.26529283333641407 0.52817120211965896 1.3185414118766783 -0.099516955337072791 -0.28633327060275604 0.51054247591230606 0.15836107168878827 0.2587295761975375 0.6385981369435787 0.47301327542066568 -0.32024659339439965 0.095699109116738484 0.22388130429808212 0.19189936594963075 0.51300205282866951 -0.068358472238760445 0.4863180050253868 1.7985350482463835 0.14924637180837716 -0.42422904097515601 0.10805403258651494 0.13590704337134957 -0.25671931472984522 0.027880379617214204 -0.033956290313175742 0.73935629403591152 0.3181992927752435 -0.19636040064421567 0.26971741309761998 -0.16292099153995515 -0.30710713733326306 -0.18297259980440139
leaf_weight=22 21 28 20 27 31 21 21 38 20 26 42 34 23 23 30 255 23 34 23 22 936 34 20 227 27 27 21 22 25 25 1157 33 23 25 22 128 32 20 22 23 32 20 37 30 21 20 24 22 20 20 22 20
leaf_count=22 21 28 20 27 31 21 21 38 20 26 42 34 23 23 30 255 23 34 23 22 936 34 20 227 27 27 21 22 25 25 1157 33 23 25 22 128 32 20 22 23 32 20 37 30 21 20 24 22 20 20 22 20
internal_value=-0.00378593 2.44774 4.70473 -0.111481 0.601031 0.742999 -0.198788 0.282369 1.20897 0.915085 -0.229296 0.344182 1.60146 0.576279 2.78066 -0.267486 -0.283876 0.0982484 0.0192115 0.54813 -0.290403 0.784912 0.908917 -0.232936 0.0202309 0.183708 -0.188877 -0.0124502 0.360677 0.267628 -0.337735 0.262817 -0.0667761 0.235614 0.295696 -0.00183349 0.357187 1.95105 -0.0364431 -0.284824 0.0172081 0.125618 -0.15387 -0.0929321 -0.172096 0.606388 0.411366 -0.260747 0.202812 -0.233817 -0.366969 -0.230843
internal_weight=3921 165 71 3756 410 94 3346 269 141 101 3168 178 44 74 51 2746 2598 124 422 172 2575 76 54 1163 148 80 97 50 96 51 1412 71 302 120 80 173 57 40 150 76 53 63 129 72 68 54 46 44 40 47 45 57
internal_count=3921 165 71 3756 410 94 3346 269 141 101 3168 178 44 74 51 2746 2598 124 422 172 2575 76 54 1163 148 80 97 50 96 51 1412 71 302 120 80 173 57 40 150 76 53 63 129 72 68 54 46 44 40 47 45 57
is_linear=0
shrinkage=0.03


Tree=3
num_leaves=57
num_cat=0
split_feature=1 3 1 1 3 2 3 0 4 2 2 2 0 1 1 4 1 1 0 0 1 1 1 2 2 1 2 2 1 3 3 0 2 1 3 1 1 1 1 0 2 0 0 4 2 0 2 0 2 2 1 4 0 4 2 1
split_gain=1.02272e+06 798057 831527 231545 107024 94581.7 36330.8 34722.4 27954.3 26219.6 26096.9 24550.7 19536.5 16558.8 15130.8 14465.2 11521.7 11250.1 8720.36 8226.32 6131.92 5736.73 5508.89 5189.38 5135.54 3206.56 3438.19 3062.15 2828.72 2708.26 2486.19 1920.76 1820.1 1791.87 2116.41 1582.63 1514.03 1340.14 1163.94 974.659 804.857 801.728 669.78 663.524 711.119 652.769 436.626 373.636 364.157 336.633 321.163 230.126 213.444 188.978 170.346 109.542
threshold=280.50000000000006 5.5000000000000009 534.50000000000011 123.20000000000002 7.5000000000000009 11.500000000000002 1.0000000180025095e-35 8.5000000000000018 0.0079761431411530821 12.500000000000002 5.5000000000000009 7.5000000000000009 4.5000000000000009 63.850000000000009 476.50000000000006 0.15075757575757578 160.50000000000003 199.00000000000003 1.0000000180025095e-35 6.5000000000000009 217.50000000000003 164.50000000000003 82.15000000000002 19.500000000000004 9.5000000000000018 43.850000000000009 2.5000000000000004 20.500000000000004 90.250000000000014 2.5000000000000004 7.5000000000000009 6.5000000000000009 12.500000000000002 61.800000000000004 2.5000000000000004 159.00000000000003 80.90000000000002 54.850000000000009 207.75000000000003 3.5000000000000004 19.500000000000004 2.5000000000000004 3.5000000000000004 0.01670854271356784 17.500000000000004 5.5000000000000009 15.500000000000002 5.5000000000000009 14.500000000000002 1.5000000000000002 76.250000000000014 0.023469631316098711 7.5000000000000009 0.028632916581266658 13.500000000000002 52.250000000000007
decision_type=2 2 2 2 2 2 2 2 2 2 2 2 2 2 2 2 2 2 2 2 2 2 2 2 2 2 2 2 2 2 2 2 2 2 2 2 2 2 2 2 2 2 2 2 2 2 2 2 2 2 2 2 2 2 2 2
left_child=3 2 11 6 7 39 13 8 16 42 -10 -2 15 37 19 18 -5 23 30 -7 24 -9 33 35 -12 41 -27 -25 50 -24 36 40 -33 47 -35 48 -8 -1 -18 -3 -31 -20 49 -19 -45 -36 -32 55 -11 -6 -15 -37 -29 -44 -49 -14
right_child=1 5 -4 4 9 14 12 21 10 17 20 -13 22 28 -16 -17 38 43 25 -21 -22 -23 29 27 -26 26 -28 52 -30 31 46 32 -34 34 45 51 -38 -39 -40 -41 -42 -43 53 44 -46 -47 -48 54 -50 -51 -52 -53 -54 -55 -56 -57
leaf_value=-0.25798774416630083 3.3508836037772038 -0.25791258026571834 9.5843300402164449 0.74549800576834846 -0.38915337819319507 1.4938393207696767 -0.048328467817867503 1.3237864035367966 1.3910332342852718 0.036234183192253112 0.031735193238808558 2.0387338962202723 -0.29091342775445234 0.42375295696469645 2.0609725359211795 0.5058661447252546 1.3595144882372447 0.47065140519823345 -0.40091503044264909 0.71495784755634229 0.72644046826796105 1.9944664627042681 0.3312265477102736 0.65765489459037774 0.56201604626395485 -0.41144019301235674 -0.26520861727169548 0.14981795641779899 0.7130306214094162 -0.12170704968056631 -0.26274681613363066 0.33644254055890166 0.018146446978703872 0.093864376256015236 -0.19611810714527966 0.24330095367263194 0.24407269400358197 0.039267506684575758 1.6717623734203253 -0.027235131665656807 0.050540806464850901 -0.32489423466470618 -0.12212779948244923 0.79085421957399527 0.54939419337681361 -0.081541017216664777 -0.10318970371376383 -0.13725778093392196 -0.097549006964297996 -0.2589636892080307 0.28538289706294356 0.11050543189048766 0.28523117097941314 -0.24374019687590393 -0.22396908501261156 -0.23099889878956778
leaf_weight=39 21 34 21 29 39 26 34 24 23 30 65 33 57 36 23 21 21 21 269 23 22 22 23 22 22 160 1514 20 32 103 29 22 61 41 100 23 30 21 22 32 32 233 23 23 21 81 33 44 47 33 26 24 22 23 38 53
leaf_count=39 21 34 21 29 39 26 34 24 23 30 65 33 57 36 23 21 21 21 269 23 22 22 23 22 22 160 1514 20 32 103 29 22 61 41 100 23 30 21 22 32 32 233 23 23 21 81 33 44 47 33 26 24 22 23 38 53
internal_value=0.00580452 2.028 4.5189 -0.108964 0.42023 0.674244 -0.213891 0.899999 0.732111 0.0969353 0.472747 2.54901 -0.237126 0.235423 1.4262 -0.277927 1.20761 0.269173 -0.285078 1.12824 0.27898 1.64455 -0.0924199 0.151543 0.165829 -0.299128 -0.279185 0.370935 0.483958 0.0216114 -0.0424278 -0.0110544 0.102514 -0.1588 -0.100758 0.0383087 0.0887346 -0.153948 1.51927 -0.146069 -0.0808779 -0.36563 -0.272354 0.609394 0.675612 -0.144843 -0.177821 -0.225912 -0.0454257 -0.329483 0.365727 0.17549 0.220749 -0.182934 -0.177441 -0.262046
internal_weight=3966 213 75 3753 621 138 3132 250 204 371 132 54 2978 154 72 2323 72 253 2302 49 109 46 655 188 87 2176 1674 64 94 241 126 218 83 414 222 124 64 60 43 66 135 502 118 65 44 181 62 192 77 72 62 47 42 46 82 110
internal_count=3966 213 75 3753 621 138 3132 250 204 371 132 54 2978 154 72 2323 72 253 2302 49 109 46 655 188 87 2176 1674 64 94 241 126 218 83 414 222 124 64 60 43 66 135 502 118 65 44 181 62 192 77 72 62 47 42 46 82 110
is_linear=0
shrinkage=0.03


Tree=4
num_leaves=55
num_cat=0
split_feature=1 3 1 1 3 2 3 0 2 4 2 2 0 1 1 4 1 1 0 0 2 1 4 1 2 2 1 3 2 3 0 0 2 1 1 3 1 1 0 0 2 0 0 1 4 1 1 0 3 4 1 1 1 1
split_gain=962276 750892 782384 217861 101088 88991.9 34183.6 33566.2 33188.8 25545.6 23658.3 23099.7 18381.9 15580.2 14236.6 13610.3 11925.1 11701.8 8204.99 7740.14 5729.34 5183.31 4755.83 3017.05 3235 2973.11 2661.55 2548.2 2441 2339.26 2219.45 1807.25 1712.53 1711.76 1685.97 1991.33 1424.56 1260.93 917.057 773.484 757.29 689.872 614.19 431.475 422.975 413.196 383.771 351.554 324.597 309.294 350.029 172.081 144.329 103.068
threshold=280.50000000000006 5.5000000000000009 534.50000000000011 123.20000000000002 5.5000000000000009 11.500000000000002 1.0000000180025095e-35 8.5000000000000018 11.500000000000002 0.0095511767925561038 5.5000000000000009 7.5000000000000009 4.5000000000000009 63.850000000000009 476.50000000000006 0.15075757575757578 200.50000000000003 162.25000000000003 1.0000000180025095e-35 6.5000000000000009 8.5000000000000018 82.15000000000002 0.09975124378109454 43.850000000000009 2.5000000000000004 15.500000000000002 90.250000000000014 2.5000000000000004 19.500000000000004 7.5000000000000009 1.0000000180025095e-35 6.5000000000000009 12.500000000000002 159.00000000000003 61.800000000000004 2.5000000000000004 80.90000000000002 54.850000000000009 3.5000000000000004 3.5000000000000004 19.500000000000004 3.5000000000000004 5.5000000000000009 64.15000000000002 0.041393588919825808 166.15000000000003 184.50000000000003 5.5000000000000009 16.500000000000004 0.05961265103056148 74.100000000000009 56.900000000000006 179.50000000000003 52.250000000000007
decision_type=2 2 2 2 2 2 2 2 2 2 2 2 2 2 2 2 2 2 2 2 2 2 2 2 2 2 2 2 2 2 2 2 2 2 2 2 2 2 2 2 2 2 2 2 2 2 2 2 2 2 2 2 2 2
left_child=3 2 11 6 7 38 13 9 41 17 -11 -2 15 37 19 18 22 -5 29 -7 33 34 28 39 -25 -18 49 -23 30 36 -10 40 -33 -12 47 -36 -8 -1 -3 -20 -29 48 -37 -31 -30 -22 -43 53 52 -15 -51 -49 -6 -14
right_child=1 5 -4 4 8 14 12 -9 16 10 20 -13 21 26 -16 -17 25 -19 23 -21 45 27 -24 24 -26 -27 -28 31 44 43 -32 32 -34 -35 35 42 -38 -39 -40 -41 -42 46 -44 -45 -46 -47 -48 51 -50 50 -52 -53 -54 -55
leaf_value=-0.25024810891885024 3.2503570665631973 -0.25017520203309901 9.2968001025063636 0.74818805034344005 -0.42526205062866207 1.4490241230451144 -0.046878611673327054 1.7411373219364568 0.37239268732922415 1.3493022339758665 -0.16404203815893692 1.977571886777878 -0.28218602042449148 0.26440466615117408 1.9991433326576069 0.49069016150065831 0.97743866988590788 1.5741466220036933 -0.37265274160470657 0.69350913001143411 0.40200414354150943 0.32128975207390992 0.58327125390370682 -0.39909698282182215 -0.25725235522662715 0.53468710243701933 0.69163969120010726 -0.11805583590406526 0.25258734892154561 -0.28717324554920193 0.036541218451694044 0.32634926911443468 0.017602053953975925 0.21462416099650519 0.091048439432435277 -0.1902345611348748 0.23675050619244573 0.038089484657560069 -0.026418072366504928 -0.27758356063616901 0.049024581536650659 -0.24379608818713358 -0.079094786500489275 -0.11787394102130616 0.42284708522260189 0.57865759574449971 -0.078181056082248679 -0.19761699407071365 -0.25119477738033641 0.49319256886839863 0.31570278744399544 -0.098048856513840807 -0.31614218133687971 -0.22406892947430879
leaf_weight=39 21 34 21 26 24 26 34 38 21 23 22 33 57 22 23 21 21 38 407 23 22 23 27 160 1514 39 32 103 29 20 113 22 61 21 41 100 30 21 32 95 32 34 81 42 24 26 20 61 33 20 20 21 20 53
leaf_count=39 21 34 21 26 24 26 34 38 21 23 22 33 57 22 23 21 21 38 407 23 22 23 27 160 1514 39 32 103 29 20 113 22 61 21 41 100 30 21 32 95 32 34 81 42 24 26 20 61 33 20 20 21 20 53
internal_value=0.00563039 1.96716 4.38334 -0.105695 0.407623 0.654017 -0.207474 0.931736 0.128096 0.758943 0.489661 2.47254 -0.230012 0.22836 1.38341 -0.26959 0.315876 1.2386 -0.276525 1.09439 0.272389 -0.0896473 0.21108 -0.290154 -0.27081 0.68965 0.469439 0.0209631 0.157341 -0.041155 0.0891747 -0.0107227 0.0994387 0.020888 -0.154036 -0.0977349 0.0860725 -0.14933 -0.141687 -0.354662 -0.0784516 -0.264666 -0.140498 -0.172487 0.329686 0.497691 -0.182457 -0.219135 -0.322319 0.354755 0.404448 -0.172118 -0.375662 -0.254184
internal_weight=3966 213 75 3753 621 138 3132 216 405 178 114 54 2978 154 72 2323 274 64 2302 49 91 655 214 2176 1674 60 94 241 187 126 134 218 83 43 414 222 64 60 66 502 135 131 181 62 53 48 54 192 77 62 40 82 44 110
internal_count=3966 213 75 3753 621 138 3132 216 405 178 114 54 2978 154 72 2323 274 64 2302 49 91 655 214 2176 1674 60 94 241 187 126 134 218 83 43 414 222 64 60 66 502 135 131 181 62 53 48 54 192 77 62 40 82 44 110
is_linear=0
shrinkage=0.03


Tree=5
num_leaves=63
num_cat=0
split_feature=1 3 1 1 3 2 3 0 1 4 2 2 2 0 4 1 1 1 0 1 4 1 1 2 2 1 2 1 2 2 1 3 1 0 1 1 2 2 4 2 0 2 2 0 4 2 0 2 1 0 1 1 4 2 2 0 0 4 1 0 4 2
split_gain=905406 706514 736145 204985 95288.7 83732.5 32318 30822 25583.4 24867.3 23084.2 23077.4 21734.5 14156 13782 13395.2 10245.3 10012.2 7282.7 5601.44 5481.67 5440.45 4911.21 4831.62 4640.86 4176.96 2888.36 2710.29 2762 1860.97 1607.62 1573.22 1474.56 1330.61 1283.46 1239.47 1210.78 1111.29 1095.19 1714.77 862.859 789.814 674.028 646.567 636.616 649.581 593.858 567.205 513.466 489.562 457.152 395.736 378.357 350.338 297.579 287.257 230.241 220.669 196.634 182.633 171.997 123.334
threshold=280.50000000000006 5.5000000000000009 534.50000000000011 123.20000000000002 7.5000000000000009 11.500000000000002 1.5000000000000002 8.5000000000000018 63.850000000000009 0.0079761431411530821 12.500000000000002 5.5000000000000009 7.5000000000000009 4.5000000000000009 0.15075757575757578 476.50000000000006 160.50000000000003 199.00000000000003 6.5000000000000009 217.50000000000003 0.0095511767925561038 164.50000000000003 87.15000000000002 9.5000000000000018 19.500000000000004 86.200000000000017 20.500000000000004 43.850000000000009 2.5000000000000004 5.5000000000000009 71.100000000000009 7.5000000000000009 159.00000000000003 6.5000000000000009 51.95000000000001 61.800000000000004 12.500000000000002 8.5000000000000018 0.080106951871657769 12.500000000000002 3.5000000000000004 5.5000000000000009 19.500000000000004 3.5000000000000004 0.01670854271356784 17.500000000000004 3.5000000000000004 19.500000000000004 76.250000000000014 4.5000000000000009 84.90000000000002 64.15000000000002 0.056710977701543742 14.500000000000002 1.5000000000000002 5.5000000000000009 3.5000000000000004 0.023469631316098711 55.150000000000006 7.5000000000000009 0.028632916581266658 5.5000000000000009
decision_type=2 2 2 2 2 2 2 2 2 2 2 2 2 2 2 2 2 2 2 2 2 2 2 2 2 2 2 2 2 2 2 2 2 2 2 2 2 2 2 2 2 2 2 2 2 2 2 2 2 2 2 2 2 2 2 2 2 2 2 2 2 2
left_child=3 2 12 6 7 40 8 9 34 16 46 -11 -2 14 20 18 -5 24 -7 23 31 -9 29 -13 32 35 -26 43 -29 48 -31 50 53 47 56 55 -35 -18 42 -40 -3 -24 -37 -22 -19 -46 54 52 -10 61 -8 -33 -27 -12 -6 -15 -1 -34 -57 -28 -48 -36
right_child=1 5 -4 4 10 15 13 21 22 11 17 19 -14 25 -16 -17 37 44 -20 -21 27 -23 41 -25 26 33 59 28 -30 30 -32 51 57 36 49 38 -38 -39 39 -41 -42 -43 -44 -45 45 -47 60 -49 -50 -51 -52 -53 -54 -55 -56 58 -58 -59 -60 -61 -62 -63
leaf_value=-0.29119356153340176 3.1528463112882203 -0.24266994069604311 9.0178959437779014 0.70263118941208413 -0.36606392933772158 1.4055533937307505 -0.020567225548956129 1.2372145238518715 0.39899585988993447 1.3088231777367385 0.033168332338333127 0.024870948404073712 1.9182447552680968 -0.25361911604900167 0.51491771650314322 1.9391690103580121 1.2761864866529193 0.43700722715684348 0.67270386426345152 0.69074976406314148 -0.36789285446848907 1.8903457377173682 0.63819479605869245 0.53922148184342811 0.62691869486461982 -0.052741990390679103 0.13697962776571512 -0.38712407465279097 -0.25580051315310404 -0.081784442299260546 0.27597436863183972 -0.278558047413826 0.23271535603896429 0.2783533466398716 -0.08391022941470147 -0.19988112087990786 0.025077419882675388 1.5812900155240839 0.16406232041972021 -0.12524224297040037 -0.025625536950537934 0.42107868089675904 -0.050496434768040978 -0.2776265881549228 0.74791198447994556 0.51713595149772507 -0.11395833782426526 0.075897777742720787 0.20941042989492414 0.03831867196730205 0.16866873838752508 -0.11871187689511671 -0.19324240126039671 -0.098051944362356314 -0.24365893580696799 -0.211379561696002 -0.19896327997956956 0.10267696753144265 -0.10225609119819558 0.26223874262110752 -0.22997818265272221 -0.18577370773191035
leaf_weight=58 21 34 21 29 39 26 27 24 36 23 30 65 33 101 20 23 21 21 23 22 379 22 38 22 22 69 20 160 1454 26 20 20 23 25 20 111 53 22 28 54 32 25 36 88 23 21 23 24 20 21 20 46 23 47 33 42 42 24 23 22 23 23
leaf_count=58 21 34 21 29 39 26 27 24 36 23 30 65 33 101 20 23 21 21 23 22 379 22 38 22 22 69 20 160 1454 26 20 20 23 25 20 111 53 22 28 54 32 25 36 88 23 21 23 24 20 21 20 46 23 47 33 42 42 24 23 22 23 23
internal_value=0.00546148 1.90814 4.25184 -0.102524 0.395394 0.634396 -0.20125 0.848097 0.080035 0.689919 0.0903385 0.445295 2.39837 -0.234265 -0.269039 1.34191 1.1384 0.25195 1.06156 0.263082 -0.276185 1.54958 0.343779 0.154937 0.140981 -0.103555 0.348454 -0.287235 -0.268819 0.215149 0.0737629 -0.0726889 0.0338977 0.0104418 -0.185317 -0.159543 0.106256 1.43229 -0.114297 -0.0264553 -0.137436 0.552038 -0.163297 -0.350883 0.572907 0.637769 -0.256168 -0.0539847 0.331287 -0.0804111 0.0599587 -0.16715 -0.0878671 -0.0469272 -0.309962 -0.22196 -0.252457 0.166313 -0.172767 0.202592 -0.171968 -0.138395
internal_weight=3966 213 75 3753 621 138 3132 250 329 204 371 132 54 2803 2214 72 72 253 49 109 2194 46 165 87 188 589 64 2081 1614 102 46 113 124 194 164 395 78 43 229 82 66 63 147 467 65 44 118 116 56 64 47 66 92 77 72 166 100 47 65 42 46 43
internal_count=3966 213 75 3753 621 138 3132 250 329 204 371 132 54 2803 2214 72 72 253 49 109 2194 46 165 87 188 589 64 2081 1614 102 46 113 124 194 164 395 78 43 229 82 66 63 147 467 65 44 118 116 56 64 47 66 92 77 72 166 100 47 65 42 46 43
is_linear=0
shrinkage=0.03


Tree=6
num_leaves=63
num_cat=0
split_feature=1 3 1 1 3 2 2 2 0 0 1 1 2 3 0 1 4 4 1 4 2 1 0 3 3 3 4 4 1 1 1 2 4 4 1 1 4 3 1 1 0 2 2 1 2 1 2 1 2 0 2 1 1 4 2 2 4 2 2 2 4 2
split_gain=815515 521939 409223 216518 116567 51964.7 45618.9 32693.8 32425.4 26451.1 21591.5 17522.4 16554.1 15326.4 14382.4 11629.7 11153 6420.51 5034.92 4396.51 4233.2 3664.84 3630.5 3374.74 3108.43 2951.37 2898.44 2871.6 2485.91 1695.5 1383.87 1567.28 1381.83 1358.68 1285.37 1245.84 1165.47 1107.4 1849.2 947.609 820.175 854.878 768.392 766.358 752.618 560.735 443.883 437.278 509.151 425.771 411.931 295.339 252.564 246.353 245.978 193.102 159.507 141.209 124.366 87.8304 65.2524 20.0944
threshold=305.50000000000006 9.5000000000000018 534.50000000000011 121.50000000000001 1.5000000000000002 14.500000000000002 8.5000000000000018 12.500000000000002 4.5000000000000009 8.5000000000000018 461.00000000000006 154.40000000000003 9.5000000000000018 1.0000000180025095e-35 1.5000000000000002 200.50000000000003 0.010035246727089629 0.021798526966025186 75.300000000000011 0.060030030030030039 2.5000000000000004 159.00000000000003 2.5000000000000004 1.5000000000000002 7.5000000000000009 1.5000000000000002 0.047590736651378751 0.021798526966025186 59.300000000000004 154.40000000000003 70.200000000000017 8.5000000000000018 0.075614636935391666 0.014833149981664835 90.250000000000014 882.50000000000011 0.01670854271356784 2.5000000000000004 51.95000000000001 91.15000000000002 5.5000000000000009 12.500000000000002 12.500000000000002 48.900000000000006 1.0000000180025095e-35 38.100000000000009 7.5000000000000009 52.250000000000007 8.5000000000000018 7.5000000000000009 14.500000000000002 75.945000000000007 52.250000000000007 0.059940119760479048 19.500000000000004 19.500000000000004 0.031587261993847184 1.5000000000000002 19.500000000000004 19.500000000000004 0.055132584529874948 12.500000000000002
decision_type=2 2 2 2 2 2 2 2 2 2 2 2 2 2 2 2 2 2 2 2 2 2 2 2 2 2 2 2 2 2 2 2 2 2 2 2 2 2 2 2 2 2 2 2 2 2 2 2 2 2 2 2 2 2 2 2 2 2 2 2 2 2
left_child=3 2 12 8 11 35 20 9 16 14 -7 -5 -2 34 -8 19 24 -13 40 29 44 -22 37 -20 28 26 -24 -16 -1 -9 45 -32 39 -23 49 -3 -17 38 60 -25 52 43 -34 -42 -6 -27 -30 58 -49 -10 -26 -52 61 -28 -21 -54 -38 -46 -39 -43 -18 -15
right_child=1 5 -4 4 6 10 7 15 13 -11 -12 17 -14 18 27 36 22 -19 23 54 21 33 25 32 50 30 53 -29 46 -31 31 -33 42 -35 -36 -37 56 47 -40 -41 41 59 -44 -45 57 -47 -48 48 -50 -51 51 -53 55 -55 -56 -57 -58 -59 -60 -61 -62 -63
leaf_value=-0.20098593789339064 2.1352630078451975 -0.22980308286074935 7.5282303598523139 0.96711604742627388 -0.15812942277039249 0.65831590533256523 1.1224125500768423 -0.047724866410251705 0.22352984942238907 1.6768252161603707 1.9594570822607387 1.4756199724023993 3.1854496800899503 -0.2814046986206718 0.13714683429848765 0.40995554440096016 -0.27953512215614318 2.1924841739820398 0.32677018486791182 0.3066397334848131 -0.21674499962478874 0.36563961179181931 0.22487559592723846 -0.15370002735744823 -0.25756005468039678 -0.33796682419714991 -0.10300626249148928 0.53364424467086791 0.2515767306151489 0.15082080349326132 -0.29492328841397736 -0.18747738465596053 0.18511721542105078 0.046420438587665556 0.58328335967659939 0.062400498036295181 0.6315469448907034 -0.37718550871186335 -0.0082375395298004139 -0.016480821898715064 -0.19719331017949362 -0.21317913686937612 0.009873386703823742 0.0098003764608874909 -0.37605770858558446 -0.27519599091873531 0.10259964787090818 -0.3727677557306382 -0.28930114460433576 0.39247165145874024 -0.19057683956623078 -0.02754161149263382 -0.20224964861358913 -0.20949921406805513 0.44591337134242059 -0.10811436760425568 0.74992682719230652 -0.28925672615728071 -0.32727271013664749 -0.14029920475049451 -0.34711963554223374 -0.2446425426006317
leaf_weight=20 35 29 20 38 31 24 32 80 29 26 22 22 22 23 31 20 20 23 27 21 38 20 20 77 29 154 29 35 36 75 188 349 32 30 20 24 21 295 24 110 22 46 76 60 37 761 36 103 182 25 20 20 91 60 25 25 20 31 53 22 36 32
leaf_count=20 35 29 20 38 31 24 32 80 29 26 22 22 22 23 31 20 20 23 27 21 38 20 20 77 29 154 29 35 36 75 188 349 32 30 20 24 21 295 24 110 22 46 76 60 37 761 36 103 182 25 20 20 91 60 25 25 20 31 53 22 36 32
internal_value=-0.0128679 1.98363 3.83609 -0.105143 0.390719 0.542838 0.238518 0.424831 -0.208343 0.826159 1.2806 1.44146 2.5406 -0.0310217 0.600472 0.234889 -0.260556 1.84202 -0.0780752 0.12478 -0.146064 0.00533063 -0.27764 0.00574264 -0.0192607 -0.252022 -0.101464 0.347411 0.0948982 0.0483456 -0.263324 -0.225093 -0.0236395 0.174108 0.377835 -0.0974845 0.597707 -0.333728 -0.228559 -0.0729828 -0.162154 -0.110954 0.0617975 -0.0457345 -0.280637 -0.285761 0.177088 -0.347019 -0.319466 0.301744 -0.171473 -0.109059 -0.207067 -0.174799 0.382332 -0.181962 0.689293 -0.336487 -0.369584 -0.1896 -0.322982 -0.260016
internal_weight=3984 176 77 3808 656 99 573 386 3152 124 46 83 57 717 98 262 2435 45 643 201 187 88 2274 322 161 1561 109 66 92 155 1452 537 295 50 74 53 61 713 80 187 321 150 108 82 99 915 72 633 285 54 69 40 171 89 46 116 41 68 348 68 56 55
internal_count=3984 176 77 3808 656 99 573 386 3152 124 46 83 57 717 98 262 2435 45 643 201 187 88 2274 322 161 1561 109 66 92 155 1452 537 295 50 74 53 61 713 80 187 321 150 108 82 99 915 72 633 285 54 69 40 171 89 46 116 41 68 348 68 56 55
is_linear=0
shrinkage=0.03


Tree=7
num_leaves=63
num_cat=0
split_feature=1 3 1 1 3 2 2 2 0 0 1 1 2 3 0 1 4 4 1 4 2 2 1 0 3 3 3 4 4 1 1 1 2 4 1 1 4 3 1 1 0 2 2 1 2 1 2 1 2 0 2 1 1 1 2 2 4 2 2 2 4 2
split_gain=767318 491093 385038 203722 109678 48893.6 42922.8 30761.6 30509.1 24887.9 20315.4 16486.8 15575.8 14420.6 13532.4 10942.4 10493.8 6041.05 4737.36 4136.68 3983.02 3650.6 4157.82 3415.94 3175.29 2924.73 2776.94 2727.14 2701.89 2349.47 1595.3 1302.08 1474.65 1300.16 1209.41 1172.21 1096.59 1041.96 1739.91 891.605 771.702 804.355 722.98 721.066 708.138 527.595 436.471 411.435 479.06 400.608 387.586 277.884 237.638 236.565 231.441 181.689 150.08 132.863 117.016 82.6397 61.396 18.9068
threshold=305.50000000000006 9.5000000000000018 534.50000000000011 121.50000000000001 1.5000000000000002 14.500000000000002 8.5000000000000018 12.500000000000002 4.5000000000000009 8.5000000000000018 461.00000000000006 154.40000000000003 9.5000000000000018 1.0000000180025095e-35 1.5000000000000002 200.50000000000003 0.010035246727089629 0.021798526966025186 75.300000000000011 0.060030030030030039 2.5000000000000004 7.5000000000000009 159.00000000000003 2.5000000000000004 1.5000000000000002 7.5000000000000009 1.5000000000000002 0.047590736651378751 0.021798526966025186 63.850000000000009 154.40000000000003 70.200000000000017 8.5000000000000018 0.075614636935391666 90.250000000000014 882.50000000000011 0.01670854271356784 2.5000000000000004 51.95000000000001 91.15000000000002 5.5000000000000009 12.500000000000002 12.500000000000002 48.900000000000006 1.0000000180025095e-35 38.100000000000009 7.5000000000000009 52.250000000000007 8.5000000000000018 7.5000000000000009 14.500000000000002 75.945000000000007 52.250000000000007 53.350000000000009 19.500000000000004 19.500000000000004 0.031587261993847184 1.5000000000000002 19.500000000000004 19.500000000000004 0.055132584529874948 12.500000000000002
decision_type=2 2 2 2 2 2 2 2 2 2 2 2 2 2 2 2 2 2 2 2 2 2 2 2 2 2 2 2 2 2 2 2 2 2 2 2 2 2 2 2 2 2 2 2 2 2 2 2 2 2 2 2 2 2 2 2 2 2 2 2 2 2
left_child=3 2 12 8 11 35 20 9 16 14 -7 -5 -2 34 -8 19 25 -13 40 30 44 22 -22 37 -20 29 27 -25 -16 -1 -9 45 -33 39 49 -3 -17 38 60 -26 52 43 -35 -42 -6 -28 -31 58 -49 -10 -27 -52 61 -29 -21 -54 -38 -46 -39 -43 -18 -15
right_child=1 5 -4 4 6 10 7 15 13 -11 -12 17 -14 18 28 36 23 -19 24 54 21 -23 -24 26 33 50 31 53 -30 46 -32 32 -34 42 -36 -37 56 47 -40 -41 41 59 -44 -45 57 -47 -48 48 -50 -51 51 -53 55 -55 -56 -57 -58 -59 -60 -61 -62 -63
leaf_value=-0.15613626694679261 2.071205105781555 -0.22290899030093489 7.302383417844772 0.93810256681944193 -0.15338553751668624 0.63856641992926599 1.0887401744350791 -0.046293120270129294 0.21682395489051423 1.6265204920677037 1.9006734186952763 1.431351382515647 3.0898861637982455 -0.27296256158662879 0.13303242992970252 0.3976568656861782 -0.27114906960725788 2.126709627068561 0.31696707728836271 0.2974405435153416 -0.15840247219671375 -0.25044105662964283 0.36704222738742825 0.21812932911515234 -0.14908902748838646 -0.24983325111133786 -0.32782781774347475 -0.20986547979543793 0.51763492461613236 0.2623805176940831 0.14629617888703941 -0.28607559179054926 -0.18185306354076267 0.17956369601190089 0.56578485907986753 0.060528485780814663 0.61260052208389548 -0.36586994158211394 -0.0079904238879680636 -0.015986398469656705 -0.19127751365303994 -0.20678376335002807 0.0095771860684219154 0.0095063656712882205 -0.36477597752132929 -0.26694011466026929 0.10922240137396488 -0.3615847242225721 -0.28062211385140051 0.38069750275611874 -0.18485953545570374 -0.026715362057089805 -0.1961821594293956 -0.11020972507695356 0.43253597388267517 -0.10487093902230261 0.72742901802062987 -0.28057902782194072 -0.31745452509736116 -0.13609022660688919 -0.33670604189236958 -0.23730326503515242
leaf_weight=25 35 29 20 38 31 24 32 80 29 26 22 22 22 23 31 20 20 23 27 21 23 32 33 20 77 29 154 53 35 33 75 188 349 32 20 24 21 295 24 110 22 46 76 60 37 761 34 103 182 25 20 20 91 36 25 25 20 31 53 22 36 32
leaf_count=25 35 29 20 38 31 24 32 80 29 26 22 22 22 23 31 20 20 23 27 21 23 32 33 20 77 29 154 53 35 33 75 188 349 32 20 24 21 295 24 110 22 46 76 60 37 761 34 103 182 25 20 20 91 36 25 25 20 31 53 22 36 32
internal_value=-0.0124818 1.92413 3.721 -0.101989 0.378998 0.526553 0.231362 0.412086 -0.202093 0.801375 1.24218 1.39822 2.46438 -0.030091 0.582458 0.227843 -0.25274 1.78676 -0.075733 0.121037 -0.141682 0.00517071 0.151235 -0.269311 0.00557036 -0.0186829 -0.244461 -0.0984205 0.336988 0.0920512 0.0468953 -0.255424 -0.218341 -0.0229304 0.3665 -0.0945599 0.579776 -0.323716 -0.221702 -0.0707934 -0.15729 -0.107625 0.0599436 -0.0443625 -0.272218 -0.277188 0.184658 -0.336608 -0.309882 0.292691 -0.166328 -0.105787 -0.200855 -0.169555 0.370862 -0.176503 0.668614 -0.326392 -0.358496 -0.183912 -0.313293 -0.252215
internal_weight=3984 176 77 3808 656 99 573 386 3152 124 46 83 57 717 98 262 2435 45 643 201 187 88 56 2274 322 161 1561 109 66 92 155 1452 537 295 74 53 61 713 80 187 321 150 108 82 99 915 67 633 285 54 69 40 171 89 46 116 41 68 348 68 56 55
internal_count=3984 176 77 3808 656 99 573 386 3152 124 46 83 57 717 98 262 2435 45 643 201 187 88 56 2274 322 161 1561 109 66 92 155 1452 537 295 74 53 61 713 80 187 321 150 108 82 99 915 67 633 285 54 69 40 171 89 46 116 41 68 348 68 56 55
is_linear=0
shrinkage=0.03


Tree=8
num_leaves=62
num_cat=0
split_feature=1 3 1 1 3 2 2 2 2 0 1 1 3 2 1 4 4 4 1 0 0 4 2 2 1 0 3 3 3 4 1 0 1 2 1 1 3 1 1 4 4 0 2 1 2 2 1 2 1 2 0 2 1 1 4 2 2 2 2 4 2
split_gain=721970 462069 363599 191682 103196 46003.9 40386.1 29034.7 29455.5 28706 19114.8 15512.5 13568.4 12393.4 11223.7 9873.64 5684.03 5004.2 4457.38 4352 4258.92 3915.96 3747.62 3434.85 3912.09 3214.06 2987.63 2751.87 2612.83 2565.97 2219.21 1225.66 1225.13 1387.5 1137.93 1102.93 980.378 1637.08 879.988 798.953 764.662 726.095 756.818 678.451 666.287 560.895 496.414 394.901 387.119 450.748 376.932 364.679 261.461 223.593 222.777 170.951 125.011 110.1 77.7557 57.7675 17.7894
threshold=305.50000000000006 9.5000000000000018 524.50000000000011 121.50000000000001 1.5000000000000002 14.500000000000002 8.5000000000000018 10.500000000000002 9.5000000000000018 4.5000000000000009 461.00000000000006 154.40000000000003 1.0000000180025095e-35 9.5000000000000018 200.50000000000003 0.010035246727089629 0.021798526966025186 0.017192118226600991 75.300000000000011 18.500000000000004 1.0000000180025095e-35 0.033955955263461325 2.5000000000000004 7.5000000000000009 159.00000000000003 2.5000000000000004 1.5000000000000002 7.5000000000000009 1.5000000000000002 0.047590736651378751 59.300000000000004 7.5000000000000009 70.200000000000017 8.5000000000000018 90.250000000000014 882.50000000000011 2.5000000000000004 51.95000000000001 106.40000000000002 0.022271825396825401 0.01670854271356784 5.5000000000000009 12.500000000000002 48.900000000000006 1.0000000180025095e-35 12.500000000000002 38.100000000000009 7.5000000000000009 52.250000000000007 8.5000000000000018 7.5000000000000009 14.500000000000002 75.945000000000007 52.250000000000007 0.059940119760479048 19.500000000000004 1.5000000000000002 19.500000000000004 19.500000000000004 0.055132584529874948 12.500000000000002
decision_type=2 2 2 2 2 2 2 2 2 2 2 2 2 2 2 2 2 2 2 2 2 2 2 2 2 2 2 2 2 2 2 2 2 2 2 2 2 2 2 2 2 2 2 2 2 2 2 2 2 2 2 2 2 2 2 2 2 2 2 2 2
left_child=3 2 13 9 11 35 22 8 39 15 -7 -5 34 -2 19 27 -13 -10 41 20 -9 40 44 24 -24 36 -20 30 29 -27 -1 38 46 -34 50 -3 37 59 -28 -8 -16 53 43 -43 -6 -33 -30 -32 57 -50 -11 -29 -53 60 -31 -55 -46 -38 -44 -17 -14
right_child=1 5 -4 4 6 10 7 14 17 12 -12 16 18 -15 21 25 -18 -19 26 -21 -22 -23 23 -25 -26 28 31 51 32 54 47 45 33 -35 -36 -37 48 -39 -40 -41 -42 42 58 -45 56 -47 -48 -49 49 -51 -52 52 -54 55 -56 -57 -58 -59 -60 -61 -62
leaf_value=-0.1902722706198692 1.9014120865410025 -0.21622172207667908 6.7681613420403517 0.90995949155405953 -0.14878397245080241 0.61940943360328671 0.22539442268013954 0.49793057663285212 1.1455229302346708 0.21031923274027889 1.8436531714146787 1.388410841768438 -0.26477368448091587 2.8336910671847204 0.3318993830680847 -0.26301459360122681 2.0629083401223887 1.8166247334480283 0.30745806673334702 0.56673450810568671 0.064670978097224635 0.92779066732951576 -0.15365039851850545 -0.2429278266581241 0.35603095672347329 0.21158544322941453 -0.097735833430376187 -0.2423382530592639 -0.31799298405647275 -0.09619741625313101 0.23720430588970581 0.17732824790066684 -0.27749332402931881 -0.1763974707733765 0.54881130722165106 0.058712634821422395 -0.35489384146868169 -0.0077507036924362189 0.051575947361795799 0.47760260760784146 0.55984190204968809 -0.18553918784314935 -0.20058024959719697 0.0092211743371444759 -0.35383269889934643 0.018285255865193903 -0.25893191125483772 0.096687250762867424 -0.3507371830708772 -0.27220345608480684 0.36927658152580262 -0.17931374645233153 -0.025913899093866346 -0.1902966951509262 -0.19746637891232968 -0.10172481011152268 -0.27216165569520762 -0.30793089212111707 -0.13200751971114766 -0.32660486419995627 -0.23018416464328764
leaf_weight=20 33 29 23 38 31 24 20 23 20 29 22 22 23 21 27 20 23 20 27 21 182 21 23 32 33 20 156 29 154 29 36 29 188 349 20 24 295 24 46 26 26 22 46 60 37 64 761 36 103 182 25 20 20 91 60 25 31 53 22 36 32
leaf_count=20 33 29 23 38 31 24 20 23 20 29 22 22 23 21 27 20 23 20 27 21 182 21 23 32 33 20 156 29 154 29 36 29 188 349 20 24 295 24 46 26 26 22 46 60 37 64 761 36 103 182 25 20 20 91 60 25 31 53 22 36 32
internal_value=-0.0121074 1.8664 3.60937 -0.0989292 0.367628 0.510756 0.224421 0.399723 0.88568 -0.19603 1.20492 1.35627 -0.0291883 2.26397 0.260416 -0.245157 1.73315 1.48107 -0.073461 0.155416 0.113281 0.581092 -0.137432 0.00501559 0.146698 -0.261232 0.00540325 -0.0181224 -0.237127 -0.0954679 0.0892897 -0.0222424 -0.247761 -0.21179 0.355505 -0.0917231 -0.314004 -0.215051 -0.0637341 0.367947 0.44372 -0.152571 -0.104396 -0.0430316 -0.264052 0.0678793 -0.268872 0.166946 -0.32651 -0.300586 0.283911 -0.161339 -0.102614 -0.194829 -0.164469 -0.171208 -0.3166 -0.347741 -0.178395 -0.303894 -0.244649
internal_weight=3984 176 77 3808 656 99 573 386 86 3152 46 83 717 54 300 2435 45 40 643 226 205 74 187 88 56 2274 322 161 1561 109 92 295 1452 537 74 53 713 80 202 46 53 321 150 82 99 93 915 72 633 285 54 69 40 171 89 116 68 348 68 56 55
internal_count=3984 176 77 3808 656 99 573 386 86 3152 46 83 717 54 300 2435 45 40 643 226 205 74 187 88 56 2274 322 161 1561 109 92 295 1452 537 74 53 713 80 202 46 53 321 150 82 99 93 915 72 633 285 54 69 40 171 89 116 68 348 68 56 55
is_linear=0
shrinkage=0.03


Tree=9
num_leaves=60
num_cat=0
split_feature=1 3 1 1 2 2 3 1 1 0 2 2 2 0 1 4 4 3 3 1 2 1 1 2 2 2 2 2 1 3 2 1 3 2 1 4 0 3 1 1 1 0 2 2 3 2 0 2 1 2 3 4 2 2 0 1 2 4 2
split_gain=535370 244822 154951 75712.8 60735.8 57117.7 47221.2 32831.3 28677.3 22765.7 22260.8 23844.2 20829.3 14743.9 13433.2 12422.5 12153.2 9186.62 8940.29 9867.92 5314.34 4581.21 4247.79 4247.33 4237.23 4090.24 3571.3 2680.09 2223.23 2478.14 2592.26 2022.03 2208.12 1960.45 1863.29 1731.78 1702.85 1561.15 1386.66 1324.11 1080.06 812.083 702.737 679.167 595.653 570.818 534.094 447.107 457.238 560.286 355.589 324.241 298.37 224.655 217.774 117.01 87.8623 77.8282 50.975
threshold=195.50000000000003 7.5000000000000009 494.00000000000006 121.50000000000001 5.5000000000000009 12.500000000000002 1.5000000000000002 534.50000000000011 299.50000000000006 5.5000000000000009 8.5000000000000018 10.500000000000002 9.5000000000000018 1.0000000180025095e-35 349.00000000000006 0.023469631316098711 0.15075757575757578 1.0000000180025095e-35 1.5000000000000002 79.100000000000009 14.500000000000002 1007.5000000000001 85.90000000000002 19.500000000000004 20.500000000000004 16.500000000000004 8.5000000000000018 12.500000000000002 67.950000000000017 7.5000000000000009 9.5000000000000018 47.100000000000009 17.500000000000004 6.5000000000000009 138.50000000000003 0.028490259740259743 1.0000000180025095e-35 17.500000000000004 278.00000000000006 54.850000000000009 139.70000000000002 3.5000000000000004 5.5000000000000009 19.500000000000004 14.500000000000002 1.5000000000000002 3.5000000000000004 12.500000000000002 48.900000000000006 9.5000000000000018 13.500000000000002 0.045584415584415595 20.500000000000004 7.5000000000000009 9.5000000000000018 48.150000000000006 1.5000000000000002 0.010681079231076382 19.500000000000004
decision_type=2 2 2 2 2 2 2 2 2 2 2 2 2 2 2 2 2 2 2 2 2 2 2 2 2 2 2 2 2 2 2 2 2 2 2 2 2 2 2 2 2 2 2 2 2 2 2 2 2 2 2 2 2 2 2 2 2 2 2
left_child=3 2 4 9 -2 21 34 20 13 16 37 12 -12 -6 -10 -15 18 54 19 39 -7 45 31 27 -25 -22 46 -13 47 30 33 41 -33 -30 -5 -21 -28 44 -27 55 -29 -20 -41 50 53 57 -24 48 -19 -50 -31 -26 -45 -8 -11 -1 -46 -3 -49
right_child=1 5 -4 6 8 7 10 -9 14 17 11 23 -14 15 -16 -17 -18 28 22 35 25 -23 26 24 51 38 36 40 29 43 -32 32 -34 -35 -36 -37 -38 -39 -40 42 -42 -43 -44 52 56 -47 -48 58 49 -51 -52 -53 -54 -55 -56 -57 -58 -59 -60
leaf_value=-0.23340932991446517 2.9045311809539793 -0.33583645677566526 4.2726903025941416 0.84318367025256147 1.5541114467924291 1.0530466300249099 -0.12571212202567478 1.883110897568139 2.4040979572859675 0.3489013492398792 0.19389868908458285 0.32955786437988283 1.3253280201740563 0.2360567437261343 1.3433202150889805 1.2012958938181399 0.50558445453643797 -0.18340150221534399 -0.32063682203799221 0.49595895037651061 0.1570388822663914 0.28240426111221312 -0.31368984564029156 0.68399932418550757 0.083627184510908337 0.50763845144091424 0.11309763061464764 -0.12653489983600119 0.20228158373528946 -0.061506347214021991 0.3492471167445183 -0.25530172579752269 -0.16493836335336812 -0.1661246360036043 1.2101510713317176 0.15787942588329315 -0.11812874017710034 0.018034083154052496 0.78470088243484493 0.04985958192826194 0.053560861638465594 -0.24180994389697311 -0.14934871262311936 0.12444550663232803 -0.36455244321089525 -0.12855496542020275 -0.20553073834066521 -0.20879416642220397 -0.11606818000320346 0.098928462445735929 -0.19368280312189687 0.24843157389334269 -0.016339172082287926 -0.24280898261070252 0.47452261494553605 -0.1568398138232853 -0.28405726557192595 -0.25835167893341604 -0.15141261772675949
leaf_weight=82 25 20 22 20 22 20 29 22 22 27 27 25 32 30 21 20 21 23 452 25 22 20 94 21 22 37 32 46 26 62 36 1059 316 26 33 30 275 24 29 34 86 159 30 20 26 33 73 38 24 20 26 21 42 30 23 23 23 28 22
leaf_count=82 25 20 22 20 22 20 29 22 22 27 27 25 32 30 21 20 21 23 452 25 22 20 94 21 22 37 32 46 26 62 36 1059 316 26 33 30 275 24 29 34 86 159 30 20 26 33 73 38 24 20 26 21 42 30 23 23 23 28 22
internal_value=-0.0131113 1.03804 1.93216 -0.128342 1.56437 0.410989 0.228776 0.826794 1.27303 -0.181566 0.120346 0.271754 0.807555 0.906918 1.88604 0.622152 -0.213308 0.025326 -0.218932 -0.0374855 0.611618 -0.124206 -0.235454 0.128712 0.334701 0.511293 -0.154761 0.0447425 -0.0269152 0.0271701 0.153557 -0.254713 -0.234535 0.0180785 1.07167 0.311552 -0.094027 -0.200824 0.629378 -0.151078 -0.00919978 -0.300124 -0.0435193 -0.0469765 -0.249459 -0.224604 -0.266411 -0.128272 -0.0750045 -0.0183424 -0.100558 0.164113 0.0290752 -0.185253 0.406687 -0.216637 -0.326769 -0.290637 -0.187754
internal_weight=3978 393 162 3585 140 231 465 130 115 3120 412 280 59 72 43 50 2705 415 2684 224 108 101 2460 221 64 88 474 157 365 238 88 1986 1375 52 53 55 307 132 66 169 132 611 64 150 108 81 167 127 67 44 88 43 62 59 50 105 49 48 60
internal_count=3978 393 162 3585 140 231 465 130 115 3120 412 280 59 72 43 50 2705 415 2684 224 108 101 2460 221 64 88 474 157 365 238 88 1986 1375 52 53 55 307 132 66 169 132 611 64 150 108 81 167 127 67 44 88 43 62 59 50 105 49 48 60
is_linear=0
shrinkage=0.03


Tree=10
num_leaves=59
num_cat=0
split_feature=1 3 1 2 1 2 3 1 2 0 2 2 2 2 4 4 3 3 1 1 2 1 2 2 2 2 4 1 3 2 1 3 2 2 1 4 0 3 1 1 3 0 2 2 3 4 2 1 2 1 4 4 2 0 1 2 2 1
split_gain=503730 230746 116047 86159 71238.2 49004.9 44430.5 42943.5 42581.5 21420.3 20945.1 22435 19629.3 19598.3 11434.9 9068.99 8643.69 8411.91 9284.73 4837.68 4801.25 3996.75 3996.31 3986.81 3360.24 2521.7 2499.76 2091.83 2331.69 2439.06 1902.52 2077.62 1849.27 1844.58 1762.91 1629.44 1602.21 1468.89 1245.85 1016.23 771.618 768.092 661.205 644.017 560.45 504.406 420.683 430.215 527.173 386.458 305.079 212.69 211.377 204.903 110.094 82.6696 47.9624 3.26095
threshold=195.50000000000003 5.5000000000000009 494.00000000000006 11.500000000000002 121.50000000000001 5.5000000000000009 1.5000000000000002 336.50000000000006 9.5000000000000018 5.5000000000000009 8.5000000000000018 10.500000000000002 7.5000000000000009 9.5000000000000018 0.15075757575757578 0.021798526966025186 1.0000000180025095e-35 1.5000000000000002 79.100000000000009 1007.5000000000001 14.500000000000002 85.90000000000002 19.500000000000004 20.500000000000004 8.5000000000000018 12.500000000000002 0.013937451437451438 67.950000000000017 7.5000000000000009 9.5000000000000018 47.100000000000009 17.500000000000004 19.500000000000004 6.5000000000000009 149.70000000000002 0.028490259740259743 1.0000000180025095e-35 17.500000000000004 54.850000000000009 139.70000000000002 16.500000000000004 2.5000000000000004 5.5000000000000009 16.500000000000004 14.500000000000002 0.039960079840319372 12.500000000000002 48.900000000000006 9.5000000000000018 91.15000000000002 0.045584415584415595 0.013259684697884312 7.5000000000000009 9.5000000000000018 48.150000000000006 1.5000000000000002 19.500000000000004 99.750000000000014
decision_type=2 2 2 2 2 2 2 2 2 2 2 2 2 2 2 2 2 2 2 2 2 2 2 2 2 2 2 2 2 2 2 2 2 2 2 2 2 2 2 2 2 2 2 2 2 2 2 2 2 2 2 2 2 2 2 2 2 2
left_child=4 2 5 19 9 -2 34 20 12 14 37 13 -7 -12 17 -9 53 18 38 40 -5 30 25 -24 45 -13 -14 46 29 33 41 -32 -22 -29 -6 -20 -26 44 54 -27 51 -19 -40 57 52 -23 47 -18 -49 -45 -25 -3 -8 -11 -1 -46 -48 -30
right_child=1 3 -4 7 6 8 10 15 -10 16 11 22 26 -15 -16 -17 27 21 35 -21 32 24 23 50 36 39 -28 28 43 -31 31 -33 -34 -35 -36 -37 -38 -39 42 -41 -42 -43 -44 49 55 -47 56 48 -50 -51 -52 -53 -54 -55 -56 -57 -58 -59
leaf_value=-0.22640705008741194 2.8173951503768562 -0.34976796395069842 4.1124077203273774 0.91918294723480931 0.88212252172930483 1.5550475751942601 -0.12194075897849839 1.9699321972939277 2.4708044789054173 0.33843431247605216 0.18808172974321577 0.31967112879753112 0.30660467752388548 1.2855681805126369 0.49041696412222729 1.1735043812204491 -0.17789945358815401 -0.32593291648767764 0.48108017921447754 0.27393215538561344 0.29887688141602736 -0.29495476257588182 0.66347933198724462 0.081118368777361782 0.10970470406929962 -0.12273885485918624 0.77524322155863046 0.19621313444983499 -0.15517903797328469 0.33876970668633777 -0.24764267185592109 -0.15999021395074228 0.62185966756608746 -0.16114089929140532 1.229714393466711 0.15314303928613662 -0.11458487911881371 0.017493057250976562 0.048363791798953622 0.051954036157491591 -0.12469831320372496 -0.2586207110109397 -0.14486824735999107 -0.051305695579332462 -0.35361586937537559 -0.18401705531098625 -0.20253034096015127 -0.11258613574318588 0.095960609614849091 0.065305260089112499 0.24097862375634055 -0.23197790915315802 -0.23552471160888669 0.46028693333916043 -0.15213461870732514 -0.27553554794062735 -0.14687024100260301 -0.1382527838051319
leaf_weight=82 25 37 20 25 29 29 29 31 22 27 27 25 21 32 21 22 23 295 25 20 39 112 21 22 32 46 20 26 21 36 1059 316 27 26 24 30 275 24 34 86 33 316 30 68 26 55 38 24 20 41 21 22 30 23 23 23 22 20
leaf_count=82 25 37 20 25 29 29 29 31 22 27 27 25 21 32 21 22 23 295 25 20 39 112 21 22 32 46 20 26 21 36 1059 316 27 26 24 30 275 24 34 86 33 316 30 68 26 55 38 24 20 41 21 22 30 23 23 23 22 20
internal_value=-0.012718 1.0069 2.00059 0.475116 -0.124492 1.63959 0.221913 0.960493 1.31954 -0.176119 0.116735 0.263602 0.957713 0.783329 -0.206908 1.63934 0.0245662 -0.212364 -0.036361 -0.14894 0.565121 -0.228391 0.124851 0.32466 -0.150118 0.0434002 0.535209 -0.0261078 0.026355 0.14895 -0.247072 -0.227499 0.431006 0.0175361 1.03952 0.302205 -0.0912062 -0.194799 -0.146545 -0.00892379 -0.240869 -0.29112 -0.0422137 -0.0455672 -0.241975 -0.258418 -0.124424 -0.0727544 -0.0177922 -0.00744286 0.15919 -0.305846 -0.179695 0.394487 -0.210138 -0.316966 -0.182122 -0.146922
internal_weight=3978 393 137 256 3585 117 465 144 92 3120 412 280 70 59 2705 53 415 2684 224 112 91 2460 221 64 474 157 41 365 238 88 1986 1375 66 52 53 55 307 132 169 132 92 611 64 150 108 167 127 67 44 109 43 59 59 50 105 49 60 41
internal_count=3978 393 137 256 3585 117 465 144 92 3120 412 280 70 59 2705 53 415 2684 224 112 91 2460 221 64 474 157 41 365 238 88 1986 1375 66 52 53 55 307 132 169 132 92 611 64 150 108 167 127 67 44 109 43 59 59 50 105 49 60 41
is_linear=0
shrinkage=0.03


Tree=11
num_leaves=60
num_cat=0
split_feature=1 3 1 1 2 2 3 1 1 0 2 2 2 0 1 4 4 3 0 2 1 1 2 2 2 2 3 3 2 1 1 3 1 1 0 0 3 3 0 0 2 1 0 1 0 3 3 2 2 2 2 4 1 1 2 3 3 2 4
split_gain=473959 218140 137687 67028 53592.4 50123.8 41804.6 29471.5 26739.5 20325.1 19707.3 21109.1 18440 13230.3 12475.4 11220.2 11181.4 10567.7 7382.32 4836.06 4271.29 4049.3 3885.28 3760.13 3751.19 2372.67 2327.95 2151.82 3018.02 2110 7669.94 2554.46 1875.43 1679.26 1529.02 1442.71 1382.07 1314.03 1215.85 3077.55 1116.25 1098.34 961.455 956.167 665.323 531.565 527.328 501.13 424.372 342.587 323.988 287.049 286.032 284.393 198.885 198.271 142.468 77.7838 68.6306
threshold=195.50000000000003 7.5000000000000009 494.00000000000006 121.50000000000001 5.5000000000000009 12.500000000000002 1.5000000000000002 534.50000000000011 299.50000000000006 4.5000000000000009 8.5000000000000018 10.500000000000002 9.5000000000000018 1.0000000180025095e-35 349.00000000000006 0.14870093974571588 0.023469631316098711 1.0000000180025095e-35 1.0000000180025095e-35 14.500000000000002 87.15000000000002 1007.5000000000001 16.500000000000004 19.500000000000004 20.500000000000004 12.500000000000002 7.5000000000000009 7.5000000000000009 9.5000000000000018 50.900000000000006 51.100000000000009 1.5000000000000002 63.850000000000009 138.50000000000003 9.5000000000000018 2.5000000000000004 17.500000000000004 7.5000000000000009 9.5000000000000018 4.5000000000000009 19.500000000000004 90.250000000000014 7.5000000000000009 139.70000000000002 5.5000000000000009 2.5000000000000004 14.500000000000002 1.5000000000000002 6.5000000000000009 15.500000000000002 12.500000000000002 0.045584415584415595 100.05000000000001 102.15000000000002 7.5000000000000009 13.500000000000002 1.5000000000000002 1.5000000000000002 0.010681079231076382
decision_type=2 2 2 2 2 2 2 2 2 2 2 2 2 2 2 2 2 2 2 2 2 2 2 2 2 2 2 2 2 2 2 2 2 2 2 2 2 2 2 2 2 2 2 2 2 2 2 2 2 2 2 2 2 2 2 2 2 2 2
left_child=3 2 4 9 -2 21 33 19 13 15 36 12 -12 -6 -10 18 -15 41 26 -7 34 47 -21 25 -25 -13 32 28 52 35 -31 -32 -1 -5 44 56 46 -37 39 -24 55 42 -11 -27 45 -19 54 58 -34 -28 -46 -26 -22 -42 -8 -29 -20 -48 -3
right_child=1 5 -4 6 8 7 10 -9 14 17 11 23 -14 16 -16 -17 -18 20 29 22 27 -23 38 24 51 43 49 40 -30 30 31 -33 48 -35 -36 37 -38 -39 -40 -41 53 -43 -44 -45 50 -47 57 -49 -50 -51 -52 -53 -54 -55 -56 -57 -58 -59 -60
leaf_value=-0.14260592533194499 2.7328733620047569 -0.31526831388473509 4.026980399259112 0.79142448931932441 1.4598636214841494 0.99154063975811013 -0.11828253612436097 1.7751218411597336 2.2914996941523116 0.13168954915367068 0.18243927750322553 0.31008099188804628 1.2470011316752061 0.21073532354831695 1.269237766436168 0.47739438056945799 1.1264878195524215 -0.036038067303597925 -0.25086274862289432 0.12947586231610991 0.11806850724986621 0.26571416759490968 0.42934899485629535 0.64357495218515393 0.078684816712682903 -0.11905668839164402 -0.22350967197648938 -0.065485635991943514 0.45378840744495391 0.27249604151166718 -0.041254265471635493 -0.2298562531428861 0.26107434255736212 1.1397990424931048 0.10310924996550266 -0.1666035670305534 0.016968276361003516 -0.27360785935835169 0.39455047640204427 0.9201152391019074 0.025458525579709273 0.49156386163617888 0.39292910524777003 0.050395413938649859 -0.054205513235769776 -0.18541621705711775 -0.3430073932500986 -0.12095736487345263 0.10335978815222487 -0.082470066028256572 -0.12952374579451445 0.23374926584107533 -0.033538602590560913 0.17593134422600271 -0.22845896792411802 -0.17151231237433173 -0.31897553390926786 -0.26726948012476381 -0.24250595927238464
leaf_weight=23 25 20 22 20 22 20 29 22 22 32 27 25 32 30 21 21 20 24 30 22 21 20 23 21 22 46 31 57 24 29 68 1305 28 33 26 164 24 279 20 23 26 21 21 86 95 201 26 33 34 31 112 21 24 20 30 22 351 23 28
leaf_count=23 25 20 22 20 22 20 29 22 22 32 27 25 32 30 21 21 20 24 30 22 21 20 23 21 22 46 31 57 24 29 68 1305 28 33 26 164 24 279 20 23 26 21 21 86 95 201 26 33 34 31 112 21 24 20 30 22 351 23 28
internal_value=-0.0123365 0.97669 1.82069 -0.120757 1.47398 0.384796 0.215256 0.774313 1.20031 -0.170836 0.113233 0.255694 0.759829 0.846789 1.79226 -0.213002 0.577036 -0.0317913 -0.219112 0.570444 -0.0703511 -0.116563 0.47474 0.121105 0.31492 0.0420982 -0.013204 0.047629 0.182108 -0.232709 -0.210318 -0.220515 0.0887574 1.00834 -0.120325 -0.270808 -0.188955 -0.233995 0.589829 0.674732 -0.0266032 0.307952 0.2352 -0.00865608 -0.133773 -0.169483 -0.234716 -0.210952 0.174586 -0.15299 -0.0949574 0.154414 0.0372114 0.0908815 -0.174304 -0.0950121 -0.313612 -0.307457 -0.272824
internal_weight=3978 393 162 3585 140 231 465 130 115 3120 412 280 59 72 43 2394 50 726 2373 108 652 101 88 221 64 157 147 194 69 2226 1402 1373 85 53 458 824 132 443 66 46 125 74 53 132 432 225 108 81 62 62 207 43 45 46 59 79 381 49 48
internal_count=3978 393 162 3585 140 231 465 130 115 3120 412 280 59 72 43 2394 50 726 2373 108 652 101 88 221 64 157 147 194 69 2226 1402 1373 85 53 458 824 132 443 66 46 125 74 53 132 432 225 108 81 62 62 207 43 45 46 59 79 381 49 48
is_linear=0
shrinkage=0.03


Tree=12
num_leaves=62
num_cat=0
split_feature=1 3 1 1 3 2 2 2 2 0 2 1 4 4 3 0 1 1 2 4 1 3 2 2 1 1 3 1 3 2 1 4 3 0 3 1 2 2 1 0 4 4 1 0 0 4 2 2 1 2 3 3 2 0 2 4 0 4 1 1 3
split_gain=637330 398520 528656 131688 73465.6 52432.4 25130.6 24589.9 28039 20633 20329.7 19543.8 13454.7 10507.6 8132.03 7307.45 6242.2 4513.71 4279.59 3452.05 3161.36 3371.05 3157.87 3529.08 3102.02 2785.93 3434.82 4132.01 2028.51 1972.07 1925.41 1891.37 1300.69 1213.56 1434.84 1181.8 1041.61 1013.79 992.388 770.844 757.416 702.962 568.433 399.585 377.674 328.218 313.158 297.95 280.252 616.049 240.821 232.368 225.948 159.613 158.599 152.957 101.933 92.9547 83.7285 61.4166 32.1768
threshold=280.50000000000006 8.5000000000000018 501.50000000000006 123.20000000000002 5.5000000000000009 2.5000000000000004 9.5000000000000018 5.5000000000000009 9.5000000000000018 4.5000000000000009 11.500000000000002 602.00000000000011 0.0087156311711985446 0.021798526966025186 1.0000000180025095e-35 1.0000000180025095e-35 179.50000000000003 164.50000000000003 14.500000000000002 0.039656329286448182 61.800000000000004 2.5000000000000004 7.5000000000000009 8.5000000000000018 352.50000000000006 38.100000000000009 1.5000000000000002 75.945000000000007 7.5000000000000009 2.5000000000000004 59.300000000000004 0.007224880382775121 17.500000000000004 5.5000000000000009 7.5000000000000009 143.50000000000003 18.500000000000004 19.500000000000004 787.50000000000011 3.5000000000000004 0.14870093974571588 0.081466733034677288 154.40000000000003 7.5000000000000009 5.5000000000000009 0.02743489387325004 15.500000000000002 5.5000000000000009 79.100000000000009 7.5000000000000009 16.500000000000004 7.5000000000000009 13.500000000000002 3.5000000000000004 19.500000000000004 0.13217530198662278 2.5000000000000004 0.074280984895510035 179.50000000000003 41.250000000000007 10.500000000000002
decision_type=2 2 2 2 2 2 2 2 2 2 2 2 2 2 2 2 2 2 2 2 2 2 2 2 2 2 2 2 2 2 2 2 2 2 2 2 2 2 2 2 2 2 2 2 2 2 2 2 2 2 2 2 2 2 2 2 2 2 2 2 2
left_child=3 2 6 9 7 38 -2 13 12 15 39 24 -9 -5 43 28 19 -10 -18 31 44 41 -14 -24 -7 40 27 47 30 53 -1 -12 -31 37 -35 -21 -20 -23 -3 50 51 -22 -33 57 59 -41 -30 -27 -32 -50 58 56 55 -28 -53 -46 -17 -11 -6 -16 -61
right_child=1 5 -4 4 10 11 -8 8 17 14 16 -13 22 -15 20 25 18 -19 36 35 21 33 23 -25 -26 26 29 -29 46 32 48 42 -34 34 -36 -37 -38 -39 -40 45 -42 -43 -44 -45 52 -47 -48 -49 49 -51 -52 54 -54 -55 -56 -57 -58 -59 -60 60 -62
leaf_value=-0.1797297905087471 1.3616610908279052 -0.24981448762557087 7.3377416588525683 0.77210616087913508 -0.35380865364074704 0.51594199143026187 2.6297321501645174 0.88030595880746831 0.84771426495909685 0.25490932247468401 0.27653529055416581 1.8750029697418211 0.43796803936958312 1.6486708206078038 -0.24989468758756464 -0.28309041159717663 0.78421777546405791 1.4423350413640339 0.1820369527014819 0.13844529252785903 0.3039674928188324 -0.15772324950305314 -0.21465373386229786 0.22448049538582562 0.96704662636798966 -0.067078348706092902 -0.33694702862328241 0.34031323117017748 -0.21893838687932918 -0.22803273806507837 0.07436157912360504 -0.10336056532044159 -0.16538159981672534 0.10499842889930891 -0.059460253463156761 0.40387615462144211 0.41242220803310997 0.00010281224461162791 0.016505940735340119 -0.050836977767944332 -0.47107204426418653 0.099136576911336496 0.053093879466707052 0.35490599071979523 -0.027333957052230837 -0.19693535271671511 -0.082532926852052865 -0.18004933466694573 0.30740782779196035 0.082667119119848517 -0.21421952509799519 -0.32338500379470353 -0.17695405097384204 -0.26220947708934544 -0.26863615057685158 -0.13126231972987834 -0.23191943374046911 0.16453934866189954 -0.2788907264532714 -0.17625365753968555 -0.21323359420895577
leaf_weight=20 39 34 21 20 25 23 22 30 20 21 20 20 25 32 22 76 22 27 33 26 25 130 28 40 34 34 131 20 28 1227 25 57 394 69 155 36 38 51 20 25 22 38 33 30 25 31 33 55 23 21 37 171 38 32 66 26 65 20 29 45 40
leaf_count=20 39 34 21 20 25 23 22 30 20 21 20 20 25 32 22 76 22 27 33 26 25 130 28 40 34 34 131 20 28 1227 25 57 394 69 155 36 38 51 20 25 22 38 33 30 25 31 33 55 23 21 37 171 38 32 66 26 65 20 29 45 40
internal_value=-0.00482866 1.59218 3.23233 -0.0940634 0.300712 0.565517 1.819 0.74065 0.566027 -0.17282 0.0636586 1.06813 0.327864 1.31153 -0.033458 -0.214748 0.220613 1.1893 0.418624 0.113549 -0.0660884 -0.0237262 0.149657 0.0436605 0.785022 -0.228019 -0.212818 -0.0493313 -0.0118869 -0.222807 0.0794476 0.0126477 -0.212805 -0.055482 -0.00880111 0.292566 0.305342 -0.113253 -0.151177 -0.219286 -0.299955 0.180419 -0.0459939 0.271705 -0.167239 -0.131713 -0.145145 -0.136892 0.154571 0.200145 -0.273178 -0.289996 -0.121578 -0.322275 -0.308138 -0.080317 -0.259501 0.210826 -0.313575 -0.205219 -0.193656
internal_weight=4025 213 82 3812 634 131 61 222 170 3178 412 77 123 52 735 2443 265 47 93 172 664 468 93 68 57 2293 1893 109 150 1784 89 110 1621 405 224 62 71 181 54 147 400 63 90 71 196 56 61 89 69 44 91 378 89 163 237 51 141 41 54 107 85
internal_count=4025 213 82 3812 634 131 61 222 170 3178 412 77 123 52 735 2443 265 47 93 172 664 468 93 68 57 2293 1893 109 150 1784 89 110 1621 405 224 62 71 181 54 147 400 63 90 71 196 56 61 89 69 44 91 378 89 163 237 51 141 41 54 107 85
is_linear=0
shrinkage=0.03


Tree=13
num_leaves=63
num_cat=0
split_feature=1 3 1 1 3 2 2 2 2 0 2 1 1 4 3 0 2 1 1 2 4 1 3 1 1 3 1 2 2 3 2 1 4 1 0 3 1 2 2 1 0 4 4 1 0 0 4 2 2 1 2 3 3 2 0 2 4 1 4 1 1 3
split_gain=599664 374967 497412 123905 69123.8 49333.7 23645.3 23136.6 26381.9 19413.6 19128.2 18388.8 12687.9 9886.57 7651.43 6875.58 6678.71 5873.29 4246.95 4026.66 3248.03 2974.52 3171.83 2918.69 2621.28 3231.82 3887.81 2051.61 2028.44 1908.63 1855.52 1811.62 1779.59 1289.28 1141.84 1350.04 1111.96 980.053 953.879 933.738 725.287 712.765 661.417 534.839 375.969 355.353 308.82 294.65 280.341 263.69 579.641 226.589 212.602 212.594 150.18 145.206 143.917 99.5976 87.4611 78.7801 57.7869 30.2752
threshold=280.50000000000006 8.5000000000000018 501.50000000000006 123.20000000000002 5.5000000000000009 2.5000000000000004 9.5000000000000018 5.5000000000000009 9.5000000000000018 4.5000000000000009 11.500000000000002 602.00000000000011 195.50000000000003 0.021798526966025186 1.0000000180025095e-35 1.0000000180025095e-35 7.5000000000000009 179.50000000000003 164.50000000000003 14.500000000000002 0.039656329286448182 61.800000000000004 2.5000000000000004 352.50000000000006 38.100000000000009 1.5000000000000002 75.945000000000007 7.5000000000000009 8.5000000000000018 7.5000000000000009 2.5000000000000004 59.300000000000004 0.007224880382775121 99.750000000000014 5.5000000000000009 7.5000000000000009 143.50000000000003 18.500000000000004 19.500000000000004 787.50000000000011 3.5000000000000004 0.1472136222910217 0.081466733034677288 154.40000000000003 7.5000000000000009 5.5000000000000009 0.02743489387325004 15.500000000000002 5.5000000000000009 79.100000000000009 7.5000000000000009 16.500000000000004 7.5000000000000009 13.500000000000002 3.5000000000000004 19.500000000000004 0.13217530198662278 35.050000000000004 0.074280984895510035 179.50000000000003 41.250000000000007 10.500000000000002
decision_type=2 2 2 2 2 2 2 2 2 2 2 2 2 2 2 2 2 2 2 2 2 2 2 2 2 2 2 2 2 2 2 2 2 2 2 2 2 2 2 2 2 2 2 2 2 2 2 2 2 2 2 2 2 2 2 2 2 2 2 2 2 2
left_child=3 2 6 9 7 39 -2 13 12 15 40 23 27 -5 44 29 -14 20 -10 -19 32 45 42 -7 41 26 48 -9 -29 31 54 -1 -12 -32 38 -36 -22 -21 -24 -3 51 52 -23 -34 58 60 -42 -31 -26 -33 -51 59 57 56 -27 -54 -47 -17 -11 -6 -16 -62
right_child=1 5 -4 4 10 11 -8 8 18 14 17 -13 16 -15 21 24 -18 19 -20 37 36 22 34 -25 25 30 -28 28 -30 47 33 49 43 -35 35 -37 -38 -39 -40 -41 46 -43 -44 -45 -46 53 -48 -49 -50 50 -52 -53 55 -55 -56 -57 -58 -59 -60 -61 61 -63
leaf_value=-0.17433789467811583 1.320811242713378 -0.24232005399816173 7.1176095376695905 0.74894297039508817 -0.34319439697265625 0.50046371527340094 2.5508401549946176 0.30891244758350345 0.8222828321009874 0.24726204655000142 0.26823922446370124 1.818752845287323 1.0959084853259 1.5992106717755086 -0.24239784771745854 -0.26313547528707065 0.35669272651726552 0.76069124059243631 1.39906499226888 0.17657584215429695 0.13429193560893718 0.29484846739768983 -0.15299155255120533 0.93803522439563969 -0.065065995428492035 -0.32683861375679724 0.33010384214669469 -0.21285728988647459 0.15892706965761524 -0.21237023310602773 -0.21505806890021939 0.072130730938911425 -0.10025974703462501 -0.12354627328760483 0.10184847987216451 -0.057676445649516198 0.39175986473759017 0.40004954107497864 9.9727230913498815e-05 0.016010767042636872 -0.049311866712570186 -0.44946504056453701 0.096162478953207786 0.051501065289432352 0.34425881218910215 -0.026513940024375918 -0.1910272940801036 -0.080056940154595801 -0.17464785401929508 0.2981855968547904 0.080187105323587138 -0.20779294218565963 -0.31304962763066824 -0.17164543131464405 -0.25434319434687497 -0.26057707006281072 -0.127324449970172 -0.1960456348210573 0.15960316854715345 -0.27052400584878589 -0.17096604790290196 -0.20683658856153486
leaf_weight=20 39 34 21 20 25 23 22 26 20 21 20 20 22 32 22 117 22 22 27 33 26 25 130 34 34 131 20 25 28 28 1468 25 57 153 69 155 36 38 51 20 25 24 38 33 30 25 31 33 55 23 21 37 169 38 32 66 26 24 20 29 45 40
leaf_count=20 39 34 21 20 25 23 22 26 20 21 20 20 22 32 22 117 22 22 27 33 26 25 130 34 34 131 20 25 28 28 1468 25 57 153 69 155 36 38 51 20 25 24 38 33 30 25 31 33 55 23 21 37 169 38 32 66 26 24 20 29 45 40
internal_value=-0.0046838 1.54441 3.13536 -0.0912415 0.291691 0.548552 1.76443 0.71843 0.549046 -0.167635 0.0617488 1.03609 0.318028 1.27218 -0.0324543 -0.208306 0.726301 0.213995 1.15363 0.406066 0.110142 -0.0641058 -0.0230144 0.761471 -0.221178 -0.206433 -0.0478514 0.0906361 -0.0164429 -0.0115302 -0.216123 0.0770641 0.0122683 -0.206421 -0.0538176 -0.00853707 0.283789 0.296181 -0.109855 -0.146642 -0.212708 -0.290956 0.175006 -0.0446141 0.263554 -0.162222 -0.127761 -0.140791 -0.132785 0.149934 0.194141 -0.264982 -0.280839 -0.11793 -0.312606 -0.298313 -0.0779075 -0.251716 0.204502 -0.304168 -0.199063 -0.187846
internal_weight=4025 213 82 3812 634 131 61 222 170 3178 412 77 123 52 735 2443 44 265 47 93 172 664 468 57 2293 1893 109 79 53 150 1784 89 110 1621 405 224 62 71 181 54 147 400 63 90 71 196 56 61 89 69 44 91 376 89 163 235 51 141 41 54 107 85
internal_count=4025 213 82 3812 634 131 61 222 170 3178 412 77 123 52 735 2443 44 265 47 93 172 664 468 57 2293 1893 109 79 53 150 1784 89 110 1621 405 224 62 71 181 54 147 400 63 90 71 196 56 61 89 69 44 91 376 89 163 235 51 141 41 54 107 85
is_linear=0
shrinkage=0.03


Tree=14
num_leaves=63
num_cat=0
split_feature=1 3 1 1 3 2 2 2 2 0 2 1 4 4 3 0 1 1 1 0 0 1 1 1 3 1 1 3 2 1 3 3 4 4 2 4 4 1 1 1 4 1 0 4 3 1 4 0 1 1 2 1 2 2 3 3 0 2 0 0 1 1
split_gain=564224 352807 468015 116582 65038.6 46418 22247.9 21769.2 24822.7 18266.2 17997.7 17302 12222.7 9302.27 7224.74 6469.24 5590.7 3995.95 3722.47 3271.08 3321.32 2821.27 2746.19 2466.37 3040.82 3658.04 2022.51 1795.83 1745.86 1704.55 1222.78 1200.98 1722.28 1067.34 1060.49 1038.09 1001.92 878.554 826.52 795.255 739.127 729.034 682.423 672.404 601.757 456.078 379.66 311.462 295.511 288.79 263.773 248.105 545.384 230.261 213.197 205.527 141.304 140.249 104.214 95.479 74.1242 70.2381
threshold=280.50000000000006 8.5000000000000018 501.50000000000006 123.20000000000002 5.5000000000000009 2.5000000000000004 9.5000000000000018 5.5000000000000009 9.5000000000000018 4.5000000000000009 11.500000000000002 602.00000000000011 0.0087156311711985446 0.021798526966025186 1.5000000000000002 1.0000000180025095e-35 200.50000000000003 164.50000000000003 61.800000000000004 8.5000000000000018 1.0000000180025095e-35 195.50000000000003 352.50000000000006 38.100000000000009 1.5000000000000002 75.945000000000007 61.800000000000004 7.5000000000000009 2.5000000000000004 59.300000000000004 17.500000000000004 7.5000000000000009 0.076018161805173387 0.033195592286501381 19.500000000000004 0.11583184257602865 0.039656329286448182 787.50000000000011 71.100000000000009 104.50000000000001 0.087228260869565227 95.100000000000009 3.5000000000000004 0.14870093974571588 13.500000000000002 220.50000000000003 0.081466733034677288 5.5000000000000009 184.50000000000003 75.945000000000007 5.5000000000000009 79.100000000000009 7.5000000000000009 13.500000000000002 16.500000000000004 7.5000000000000009 3.5000000000000004 19.500000000000004 14.500000000000002 2.5000000000000004 179.50000000000003 58.250000000000007
decision_type=2 2 2 2 2 2 2 2 2 2 2 2 2 2 2 2 2 2 2 2 2 2 2 2 2 2 2 2 2 2 2 2 2 2 2 2 2 2 2 2 2 2 2 2 2 2 2 2 2 2 2 2 2 2 2 2 2 2 2 2 2 2
left_child=3 2 6 9 7 37 -2 13 12 15 42 22 -9 -5 18 27 19 -10 -11 20 -12 33 -7 43 25 50 47 29 56 -1 -30 32 39 -14 44 38 -22 -3 -20 -28 -34 -36 54 55 -33 -18 -40 61 -44 -29 -25 -31 -53 -49 60 59 -26 -57 -21 -17 -6 -16
right_child=1 5 -4 4 10 11 -8 8 17 14 16 -13 21 -15 26 23 45 -19 35 58 36 -23 -24 24 28 -27 31 49 30 51 -32 34 40 -35 41 -37 -38 -39 46 -41 -42 -43 48 -45 -46 -47 -48 53 -50 -51 -52 52 -54 -55 -56 57 -58 -59 -60 -61 -62 -63
leaf_value=-0.16910776041448117 1.2811869335174559 -0.23505045217626233 6.9040812751650806 0.72647468072175969 -0.33289856300353998 0.48544981855413188 2.4743149891766634 0.83502907183766362 0.79761436530947682 -0.096859589862964446 0.39193181862831117 1.7641902877092361 -0.049463782548904413 1.5512343728542328 -0.21346470589507613 -0.26699494933219331 0.5936309938430786 1.3570930364396836 0.035873998573848181 0.40783915011584754 -0.020961233502940126 0.39697549276881744 0.90989418078871331 -0.063114018251790721 -0.31703345721004572 0.32020072036050262 -0.15406439206429889 -0.20292129902541636 -0.21499284479716987 0.069966809535026556 -0.1542471274531205 -0.081550337537527079 0.28286667425524104 0.20955293278609002 -0.053717326316982505 0.40966462043779234 0.19230314791202544 0.015530443489551543 0.32646648636838843 0.068588566807183352 0.069898300197991453 0.1134090873073129 -0.18146215222098608 -0.44345593425360591 -0.19586500407947646 0.41308691200964587 0.1675337354792282 -0.05632108009630634 -0.041380540547163586 -0.072353523373603817 -0.16940841828963973 0.28924002637033874 0.077781493046454014 -0.16649606776864906 -0.20155915042838532 -0.30424410113117151 -0.24671289900317786 -0.2527597566084428 0.31817672731620922 -0.21747032756071824 -0.26240828522320447 -0.15156826670680726
leaf_weight=20 39 34 21 20 25 23 22 30 20 37 25 20 45 32 77 76 20 27 21 20 114 27 34 34 131 20 42 30 1227 25 394 125 22 21 76 28 24 20 31 22 44 34 33 22 62 34 24 31 23 31 55 23 21 38 37 171 32 66 28 65 29 21
leaf_count=20 39 34 21 20 25 23 22 30 20 37 25 20 45 32 77 76 20 27 21 20 114 27 34 34 131 20 42 30 1227 25 394 125 22 21 76 28 24 20 31 22 44 34 33 22 62 34 24 31 23 31 55 23 21 38 37 171 32 66 28 65 29 21
internal_value=-0.00454329 1.49808 3.0413 -0.0885042 0.28294 0.532095 1.7115 0.696877 0.532575 -0.162606 0.0598964 1.00501 0.308487 1.23402 -0.0314807 -0.202056 0.207575 1.11902 0.16157 0.137866 0.0737668 0.138635 0.738627 -0.214543 -0.20024 -0.0464158 -0.0773059 -0.0111843 -0.209639 0.0747522 -0.200228 -0.0426866 0.0333603 0.0329506 -0.0759732 0.253512 0.0161282 -0.142243 0.195982 -0.0775274 0.140888 -0.00206007 -0.206327 -0.282228 -0.119451 0.479955 0.257114 -0.165823 -0.123929 -0.136567 -0.128802 0.145436 0.188317 -0.116997 -0.257033 -0.272844 -0.303228 -0.289907 0.355536 -0.244164 -0.295043 -0.200201
internal_weight=4025 213 82 3812 634 131 61 222 170 3178 412 77 123 52 735 2443 265 47 141 211 163 93 57 2293 1893 109 594 150 1784 89 1621 427 130 66 297 104 138 54 76 64 66 110 147 400 187 54 55 167 56 61 89 69 44 69 91 378 163 237 48 141 54 98
internal_count=4025 213 82 3812 634 131 61 222 170 3178 412 77 123 52 735 2443 265 47 141 211 163 93 57 2293 1893 109 594 150 1784 89 1621 427 130 66 297 104 138 54 76 64 66 110 147 400 187 54 55 167 56 61 89 69 44 69 91 378 163 237 48 141 54 98
is_linear=0
shrinkage=0.03


Tree=15
num_leaves=53
num_cat=0
split_feature=1 3 2 2 1 0 3 2 2 3 1 1 1 0 4 4 0 1 4 0 1 1 1 0 1 4 3 2 1 1 1 0 2 2 3 1 2 2 2 4 1 1 1 2 4 0 1 1 4 2 2 4
split_gain=512986 311677 177512 201135 96914.8 56591.3 41240.6 27008.6 23188.3 20432.5 15375.6 14994.1 13620.4 9711.36 10977.8 8492.87 4716.09 5090.71 5606.78 4308.03 3579.83 3067.27 6037.77 2917.78 2396.89 2000.44 1994.28 1850.31 1213.55 1085.12 1074.86 1064.22 1061.59 2580.53 976.867 972.748 1259.48 931.682 887.733 732.376 698.235 691.501 325.171 337.588 274.18 264.872 203.005 110.307 135.577 96.3632 49.8638 10.3338
threshold=299.50000000000006 9.5000000000000018 9.5000000000000018 10.500000000000002 133.50000000000003 4.5000000000000009 1.0000000180025095e-35 2.5000000000000004 5.5000000000000009 1.5000000000000002 63.850000000000009 200.50000000000003 534.50000000000011 5.5000000000000009 0.15075757575757578 0.049975024975024984 1.0000000180025095e-35 255.50000000000003 0.03183265778807181 1.0000000180025095e-35 119.20000000000002 50.900000000000006 51.100000000000009 1.0000000180025095e-35 87.15000000000002 0.11583184257602865 17.500000000000004 12.500000000000002 361.00000000000006 51.95000000000001 882.50000000000011 2.5000000000000004 9.5000000000000018 12.500000000000002 7.5000000000000009 74.100000000000009 5.5000000000000009 18.500000000000004 1.0000000180025095e-35 0.056710977701543742 143.50000000000003 159.00000000000003 50.900000000000006 12.500000000000002 0.095005938242280305 4.5000000000000009 68.100000000000009 37.050000000000004 0.079920159680638744 6.5000000000000009 1.5000000000000002 0.10050505050505053
decision_type=2 2 2 2 2 2 2 2 2 2 2 2 2 2 2 2 2 2 2 2 2 2 2 2 2 2 2 2 2 2 2 2 2 2 2 2 2 2 2 2 2 2 2 2 2 2 2 2 2 2 2 2
left_child=4 2 5 -4 9 -2 -6 30 26 10 29 15 28 14 21 19 -13 18 -18 41 25 31 -23 -24 42 35 38 -17 -9 47 -3 49 -26 -34 -33 36 -12 -35 -8 -37 -21 -10 -15 44 -44 -31 -45 51 -49 -11 -40 -1
right_child=1 7 3 -5 6 -7 8 12 11 13 20 16 -14 24 -16 27 17 -19 -20 40 -22 22 23 -25 32 -27 -28 -29 -30 45 -32 34 33 37 -36 39 -38 -39 50 -41 -42 -43 43 46 -46 -47 -48 48 -50 -51 -52 -53
leaf_value=-0.21629882984161375 0.56476909503936767 -0.17266706923076086 6.3768822457194325 2.1222182348370553 1.2776389658451079 2.5285133485283171 -0.065043174576759344 0.36400635731220243 0.27891411023383789 -0.32673860248766445 0.22796825212240218 1.0372404842291558 1.4861864182949067 -0.17841812506798774 0.51261765307188034 0.74004978138467536 0.4717023132954325 0.17415084242820739 1.0544039975430655 -0.099086088071698733 0.60792814418673513 0.23751811500638723 -0.015925172876487387 -0.18786184635036984 -0.098734454129423402 0.45521448062016412 0.07843878769212298 0.39912936718350178 0.69053141696112497 -0.088529299763962621 0.10302838146686553 -0.14030507060050962 0.37199333502696108 -0.057109339480497394 -0.23916014493208063 0.14589704288169741 -0.094377456977963445 0.12436663181854869 -0.30097482751397525 0.31970875669643278 0.079360457550493077 0.52264794438332318 -0.086768182461911966 -0.14468851990424669 0.054756978367056168 0.031776001237865004 -0.064012017258000167 -0.20882095170021056 -0.11422659702301025 -0.27608578428041702 -0.24742651141923047 -0.24523045527935025
leaf_weight=25 25 35 20 20 36 28 25 20 22 38 20 21 20 31 20 23 42 25 23 23 24 32 94 1615 28 26 27 38 21 40 20 125 26 49 321 48 24 53 34 40 139 20 22 52 28 28 61 30 25 306 29 20
leaf_count=25 25 35 20 20 36 28 25 20 22 38 20 21 20 31 20 23 42 25 23 23 24 32 94 1615 28 26 27 38 21 40 20 125 26 49 321 48 24 53 34 40 139 20 22 52 28 28 61 30 25 306 29 20
internal_value=0.0001939 1.44699 2.74086 4.24955 -0.0798435 1.60222 0.297545 0.409674 0.225685 -0.14102 0.0755079 0.339702 0.844345 -0.167143 -0.187475 0.217092 0.63242 0.537962 0.677889 0.124222 0.266547 -0.193007 -0.17076 -0.178405 -0.0189568 0.214692 -0.147102 0.527673 0.531251 -0.131451 -0.0724142 -0.242034 0.0685919 0.105195 -0.211454 0.167316 0.0521433 0.037187 -0.216302 0.224902 0.0540255 0.394978 -0.0893567 -0.0724187 -0.00751409 -0.0389918 -0.101137 -0.194324 -0.165824 -0.281681 -0.276326 -0.229157
internal_weight=3987 209 93 40 3778 53 527 116 491 3251 350 376 61 2901 2551 265 111 90 65 204 182 2531 1741 1709 350 158 115 61 41 168 55 790 156 128 446 132 44 102 88 88 162 42 194 163 50 68 113 100 55 344 63 45
internal_count=3987 209 93 40 3778 53 527 116 491 3251 350 376 61 2901 2551 265 111 90 65 204 182 2531 1741 1709 350 158 115 61 41 168 55 790 156 128 446 132 44 102 88 88 162 42 194 163 50 68 113 100 55 344 63 45
is_linear=0
shrinkage=0.03


Tree=16
num_leaves=45
num_cat=0
split_feature=1 3 2 2 1 0 3 3 2 2 0 1 1 4 0 4 0 1 1 0 1 1 3 1 1 1 1 3 1 1 1 1 3 2 2 0 1 2 0 2 2 1 4 1
split_gain=482668 293257 167021 189248 91703.1 53246.7 37293.5 26336.7 25412.4 17839.8 14960.1 12815.4 11733 11531.4 9525.12 8815.52 7150.85 4533.93 3626.9 3624.17 3283.49 3167.34 2280.11 2265.73 2709.53 2115.67 2055.94 1535.67 1531.6 1309.29 1141.82 1011.34 978.191 1659.49 977.413 887.271 526.554 524.166 494.981 227.539 597.298 209.721 98.2076 18.8022
threshold=299.50000000000006 9.5000000000000018 9.5000000000000018 10.500000000000002 159.00000000000003 4.5000000000000009 1.0000000180025095e-35 1.0000000180025095e-35 2.5000000000000004 2.5000000000000004 5.5000000000000009 534.50000000000011 90.250000000000014 0.10561171139769955 1.0000000180025095e-35 0.15075757575757578 1.0000000180025095e-35 87.15000000000002 53.350000000000009 3.5000000000000004 97.100000000000009 207.75000000000003 7.5000000000000009 200.50000000000003 168.50000000000003 255.50000000000003 85.90000000000002 17.500000000000004 126.20000000000002 133.50000000000003 361.00000000000006 882.50000000000011 7.5000000000000009 9.5000000000000018 18.500000000000004 4.5000000000000009 72.050000000000011 15.500000000000002 9.5000000000000018 12.500000000000002 11.500000000000002 67.950000000000017 0.013259684697884312 40.250000000000007
decision_type=2 2 2 2 2 2 2 2 2 2 2 2 2 2 2 2 2 2 2 2 2 2 2 2 2 2 2 2 2 2 2 2 2 2 2 2 2 2 2 2 2 2 2 2
left_child=4 2 5 -4 7 -2 -6 12 31 42 15 30 18 14 21 16 22 38 43 27 -21 -11 26 24 -16 -25 -9 -18 -14 32 -10 -3 33 -19 -34 -20 -37 -24 39 40 -12 -41 -8 -1
right_child=1 8 3 -5 6 -7 9 10 11 13 17 -13 28 -15 23 -17 19 29 35 20 -22 -23 37 25 -26 -27 -28 -29 -30 -31 -32 -33 34 -35 -36 36 -38 -39 -40 41 -42 -43 -44 -45
leaf_value=-0.19657115498185157 0.54782599124908438 -0.16748705312183926 6.1855756323337552 2.0585516992807387 1.638734167098999 2.4526579282752103 -0.23614302883977473 -0.046737822828193498 0.35308616377820723 0.50530829310417169 -0.09286287985270536 1.4416008093059063 0.44983355914694922 1.030772822201252 0.40598101658054758 0.42720920887860381 -0.23473705952610668 0.046300188253323236 0.057136093326109021 -0.17108486944229939 -0.037849495924729852 1.0328242294192314 -0.19543993720784783 0.46713632893833246 0.0953830228631313 0.14307744741439818 0.25059294023215767 -0.15537259123222799 0.76497846318327856 0.27800721701822778 0.6698154776436942 0.099937519311904907 -0.05989585348150947 0.36083354363074671 0.12063563265890444 0.34331203628044865 0.15238345081989579 -0.02627394077970701 0.052465724408626555 -0.15699041930800778 0.090666628897190085 -0.073923603681957009 -0.15487190396524966 -0.15543487286567689
leaf_weight=20 25 35 20 20 20 28 23 36 20 21 79 20 35 24 35 22 1153 36 38 993 200 20 32 66 91 25 50 271 23 38 21 20 55 26 53 26 26 34 25 59 20 51 32 20
leaf_count=20 25 35 20 20 20 28 23 36 20 21 79 20 35 24 35 22 1153 36 38 993 200 20 32 66 91 25 50 271 23 38 21 20 55 26 53 26 26 34 25 59 20 51 32 20
internal_value=0.000188082 1.40358 2.65863 4.12206 -0.0774482 1.55415 0.380087 -0.125195 0.397384 0.30539 -0.145267 0.819014 0.219988 0.401786 0.343276 -0.170948 -0.175701 0.0168969 0.0616856 -0.187319 -0.148749 0.762633 0.0243401 0.264042 0.18166 0.378109 0.126129 -0.219633 0.574805 0.118809 0.515313 -0.0702418 0.0832229 0.178201 0.0286983 0.167325 0.247848 -0.108294 -0.0736912 -0.0887817 -0.0557862 -0.118478 -0.188858 -0.176003
internal_weight=3987 209 93 40 3778 53 357 3421 116 337 3233 61 188 282 258 2791 2769 442 130 2617 1193 41 152 217 126 91 86 1424 58 208 41 55 170 62 108 90 52 66 234 209 99 110 55 40
internal_count=3987 209 93 40 3778 53 357 3421 116 337 3233 61 188 282 258 2791 2769 442 130 2617 1193 41 152 217 126 91 86 1424 58 208 41 55 170 62 108 90 52 66 234 209 99 110 55 40
is_linear=0
shrinkage=0.03


Tree=17
num_leaves=43
num_cat=0
split_feature=1 3 1 1 3 3 2 4 2 0 1 1 4 0 4 0 1 1 0 1 1 3 1 1 1 1 3 1 1 1 1 4 2 0 4 1 2 0 1 2 4 1
split_gain=454143 275925 161042 86283.4 35089.5 24780.2 23910.5 18056.4 16785.5 14075.9 12058 11039.5 10849.9 8962.18 8294.53 6728.23 4265.97 3412.55 3409.98 3089.43 2980.15 2145.35 2131.83 2549.4 1990.63 1940.82 1444.91 1441.08 1231.91 1074.34 951.566 944.67 1529.79 834.833 710.939 495.434 493.187 465.728 222.56 281.529 92.4035 17.6909
threshold=299.50000000000006 9.5000000000000018 551.00000000000011 159.00000000000003 1.0000000180025095e-35 1.0000000180025095e-35 2.5000000000000004 0.012579113924050636 2.5000000000000004 5.5000000000000009 534.50000000000011 90.250000000000014 0.10561171139769955 1.0000000180025095e-35 0.15075757575757578 1.0000000180025095e-35 87.15000000000002 53.350000000000009 3.5000000000000004 97.100000000000009 207.75000000000003 7.5000000000000009 200.50000000000003 168.50000000000003 255.50000000000003 80.90000000000002 17.500000000000004 126.20000000000002 133.50000000000003 361.00000000000006 882.50000000000011 0.066402116402116421 10.500000000000002 4.5000000000000009 0.056710977701543742 72.050000000000011 15.500000000000002 9.5000000000000018 50.900000000000006 12.500000000000002 0.013259684697884312 40.250000000000007
decision_type=2 2 2 2 2 2 2 2 2 2 2 2 2 2 2 2 2 2 2 2 2 2 2 2 2 2 2 2 2 2 2 2 2 2 2 2 2 2 2 2 2 2
left_child=3 2 7 5 -5 11 30 -2 40 14 29 17 13 20 15 21 37 41 26 -20 -10 25 23 -15 -24 -7 -17 -13 31 -8 -3 34 -33 -19 -18 -35 -23 38 -11 -40 -6 -1
right_child=1 6 -4 4 8 9 10 -9 12 16 -12 27 -14 22 -16 18 28 33 19 -21 -22 36 24 -25 -26 -27 -28 -29 -30 -31 -32 32 -34 35 -36 -37 -38 -39 39 -41 -42 -43
leaf_value=-0.19067401975393294 1.420113631136277 -0.16246244011606489 4.9639130988121032 1.5895721325874328 -0.22905873609625774 -0.062789214528165757 0.34249358242750166 2.365972221814669 0.49014903698648726 -0.15178991393039101 1.3983527566194534 0.43633854196327071 0.99984964251518249 0.39380158082076477 0.41439296104691242 -0.22769494922148306 0.091597889363765714 0.055422006523922873 -0.16595232344387251 -0.0367140111469198 1.0018395177125932 -0.18957673816010356 0.4531222375550053 0.092521532394073819 0.1387851257801056 0.23205422790514096 -0.15071141751105055 0.74202911821720396 0.26966700055097276 0.64972101279667449 0.096939395785331714 0.3412091384410858 0.072354795059189195 0.33301267910462162 -0.10685715883970261 0.14781195347125714 -0.025485724480274845 0.050891750389337534 -0.026387158582607904 -0.10435171875312473 -0.15022574802394956 -0.15077182629704475
leaf_weight=20 34 35 20 20 23 32 20 39 21 38 20 35 24 35 22 1153 32 38 993 200 20 32 66 91 25 54 271 23 38 21 20 25 80 26 33 26 34 25 72 99 32 20
leaf_count=20 34 35 20 20 23 32 20 39 21 38 20 35 24 35 22 1153 32 38 993 200 20 32 66 91 25 54 271 23 38 21 20 25 80 26 33 26 34 25 72 99 32 20
internal_value=0.000182439 1.36148 2.57887 -0.0751248 0.368685 -0.121439 0.385463 1.92544 0.296228 -0.140909 0.794444 0.213389 0.389732 0.332977 -0.16582 -0.17043 0.01639 0.0598351 -0.1817 -0.144286 0.739754 0.0236099 0.256121 0.17621 0.366766 0.122345 -0.213044 0.557561 0.115244 0.499854 -0.0681345 0.0807262 0.136368 0.162305 -0.00915621 0.240412 -0.105045 -0.0714804 -0.0861182 -0.0715245 -0.183192 -0.170723
internal_weight=3987 209 93 3778 357 3421 116 73 337 3233 61 188 282 258 2791 2769 442 130 2617 1193 41 152 217 126 91 86 1424 58 208 41 55 170 105 90 65 52 66 234 209 171 55 40
internal_count=3987 209 93 3778 357 3421 116 73 337 3233 61 188 282 258 2791 2769 442 130 2617 1193 41 152 217 126 91 86 1424 58 208 41 55 170 105 90 65 52 66 234 209 171 55 40
is_linear=0
shrinkage=0.03


Tree=18
num_leaves=55
num_cat=0
split_feature=1 3 1 2 0 3 2 3 1 2 2 2 0 1 4 4 0 4 1 1 0 1 4 1 3 3 1 4 2 2 1 0 4 4 4 4 1 0 1 2 2 0 2 4 1 1 1 4 4 3 3 2 1 1
split_gain=334053 192781 99948.2 92482.2 76145.2 52739.1 28915.5 21661.2 18012.2 17324.9 15380.3 14107.5 11325.9 9918.87 8101.04 8097.41 7382.63 4733.4 3325.24 3305.35 3060.42 3036.49 2813.07 2628.98 1987.54 1841.73 1832.08 1475.18 1244.75 1227.19 1149.83 1115.48 1065.92 1046.8 1210.93 926.262 900.442 898.781 892.687 739.319 628.703 621.031 564.791 357.319 349.407 281.629 253.619 244.699 180.186 163.649 153.545 49.9442 37.9594 3.21752
threshold=301.50000000000006 9.5000000000000018 143.50000000000003 9.5000000000000018 5.5000000000000009 5.5000000000000009 14.500000000000002 1.0000000180025095e-35 217.50000000000003 5.5000000000000009 9.5000000000000018 11.500000000000002 5.5000000000000009 60.250000000000007 0.15075757575757578 0.012579113924050636 8.5000000000000018 0.007224880382775121 99.100000000000009 200.50000000000003 3.5000000000000004 79.100000000000009 0.039656329286448182 94.500000000000014 17.500000000000004 7.5000000000000009 220.50000000000003 0.023469631316098711 16.500000000000004 2.5000000000000004 187.50000000000003 3.5000000000000004 0.056710977701543742 0.076018161805173387 0.095371856607811681 0.052128623188405804 168.50000000000003 9.5000000000000018 85.90000000000002 16.500000000000004 15.500000000000002 9.5000000000000018 1.0000000180025095e-35 0.12699351324230371 48.150000000000006 166.15000000000003 73.050000000000011 0.10269593303012327 0.024442519379266055 16.500000000000004 13.500000000000002 12.500000000000002 107.10000000000001 239.75000000000003
decision_type=2 2 2 2 2 2 2 2 2 2 2 2 2 2 2 2 2 2 2 2 2 2 2 2 2 2 2 2 2 2 2 2 2 2 2 2 2 2 2 2 2 2 2 2 2 2 2 2 2 2 2 2 2 2
left_child=2 3 7 4 -2 8 31 13 9 -4 30 24 14 44 17 -10 -8 25 37 22 29 -22 27 32 42 38 -21 28 -13 -19 48 -3 -15 35 -35 -20 -24 47 -9 -28 -27 -25 -7 -36 -1 -29 -34 50 -11 53 -14 -49 -37 -44
right_child=1 6 5 -5 -6 11 16 12 15 10 -12 19 18 23 -16 -17 -18 20 33 26 21 -23 36 41 -26 40 39 45 -30 -31 -32 -33 46 34 43 52 -38 -39 -40 -41 -42 -43 49 -45 -46 -47 -48 51 -50 -51 -52 -53 -54 -55
leaf_value=-0.19470298619039597 0.62273511294660899 -0.21368585666020712 1.1931678976416586 3.7661642657007488 3.0289071893692014 -0.086943909951618742 1.2354403426112799 -0.0057579894048663278 1.6871140262058804 0.10978961527347564 0.96125992738774846 0.059696190972482001 -0.018894713089490929 0.066128476052121687 0.40923754627054382 0.90165520562065971 0.51571720175121138 -0.28751144616930713 0.20527431809383889 0.63592793881893162 -0.17660320363720511 -0.074794329979764262 0.48637973234653475 0.43306225597858428 0.078033591449260697 -0.22049149138480423 0.18720977328040384 0.019850858956089488 0.35097857501195823 -0.19802919469196989 0.31275529469762531 0.061623755280788124 0.38398837897181509 0.40729363867214746 0.036402293935418127 -0.00049247643777302339 0.21631345975399016 0.083992444115716047 0.19594955717772244 0.43606714827673776 -0.030734904902055857 0.65542154413461684 -0.31264898014068604 0.2135831608729703 -0.047085424512624742 -0.13407629218697548 0.25252613683896402 -0.091251208774353318 -0.0068657069481336151 -0.21230796921637751 -0.087328034877777086 -0.13352976600329081 -0.05627959281206131 -0.29563203442096708
leaf_weight=31 29 27 30 28 20 21 29 39 21 22 28 31 72 22 22 27 23 155 23 24 785 397 25 26 25 30 22 23 23 1253 21 26 25 21 20 21 20 37 40 21 33 20 20 21 27 20 28 57 26 31 50 45 23 20
leaf_count=31 29 27 30 28 20 21 29 39 21 22 28 31 72 22 22 27 23 155 23 24 785 397 25 26 25 30 22 23 23 1253 21 26 25 21 20 21 20 37 40 21 33 20 20 21 27 20 28 57 26 31 50 45 23 20
internal_value=-0.00511556 1.25062 -0.064881 2.39078 1.60485 0.330118 0.414495 -0.124434 0.750224 0.563111 0.368247 0.104601 -0.14271 0.196571 -0.164137 1.24529 0.917101 -0.168755 0.00859932 0.252259 -0.178001 -0.142409 0.170309 0.351184 -0.159164 -0.000109689 0.425945 0.0793622 0.183761 -0.20788 0.127605 -0.0786283 0.24167 0.133202 0.22204 0.0509931 0.36635 -0.0529857 0.0963724 0.308745 -0.121095 0.52974 -0.223619 0.127153 -0.125984 -0.0517432 0.314537 -0.0756115 0.0466013 -0.264045 -0.0469412 -0.109904 -0.0296539 -0.304141
internal_weight=4006 182 3824 77 49 501 105 3323 175 127 97 326 3144 179 2754 48 52 2732 390 209 2590 1182 142 121 117 142 67 97 54 1408 69 53 75 129 62 67 45 261 79 43 63 46 92 41 58 43 53 224 48 71 122 102 44 40
internal_count=4006 182 3824 77 49 501 105 3323 175 127 97 326 3144 179 2754 48 52 2732 390 209 2590 1182 142 121 117 142 67 97 54 1408 69 53 75 129 62 67 45 261 79 43 63 46 92 41 58 43 53 224 48 71 122 102 44 40
is_linear=0
shrinkage=0.03


Tree=19
num_leaves=54
num_cat=0
split_feature=1 3 1 2 0 3 2 3 1 2 2 2 0 1 4 4 0 1 3 2 1 1 4 1 1 1 3 1 4 2 4 0 4 0 1 4 4 4 1 0 2 0 2 4 1 1 1 4 3 1 2 1 1
split_gain=314310 181388 94041.3 87016.5 71645.1 49622.2 27206.6 20381 16947.7 16301 14471.4 13273.7 10656.5 9332.66 7622.27 7618.85 6946.31 4538.65 5280.36 4283.38 3128.72 3110 2646.82 2473.61 2113.53 5073.45 1870.07 1723.8 1388 1171.18 1122.88 1049.55 1002.93 998.796 986.535 984.932 1139.37 871.52 847.226 845.663 695.625 584.328 531.412 336.202 328.757 264.985 238.63 230.237 153.978 146.061 46.9925 35.716 3.02736
threshold=301.50000000000006 9.5000000000000018 143.50000000000003 9.5000000000000018 5.5000000000000009 5.5000000000000009 14.500000000000002 1.0000000180025095e-35 217.50000000000003 5.5000000000000009 9.5000000000000018 11.500000000000002 5.5000000000000009 60.250000000000007 0.15075757575757578 0.012579113924050636 8.5000000000000018 94.500000000000014 2.5000000000000004 8.5000000000000018 99.100000000000009 200.50000000000003 0.039656329286448182 94.500000000000014 50.900000000000006 51.100000000000009 17.500000000000004 220.50000000000003 0.023469631316098711 16.500000000000004 0.020942982456140354 3.5000000000000004 0.056710977701543742 2.5000000000000004 164.50000000000003 0.076018161805173387 0.095371856607811681 0.052128623188405804 168.50000000000003 9.5000000000000018 16.500000000000004 9.5000000000000018 1.0000000180025095e-35 0.12699351324230371 48.150000000000006 166.15000000000003 73.050000000000011 0.10269593303012327 16.500000000000004 78.100000000000009 12.500000000000002 107.10000000000001 239.75000000000003
decision_type=2 2 2 2 2 2 2 2 2 2 2 2 2 2 2 2 2 2 2 2 2 2 2 2 2 2 2 2 2 2 2 2 2 2 2 2 2 2 2 2 2 2 2 2 2 2 2 2 2 2 2 2 2
left_child=2 3 7 4 -2 8 31 13 9 -4 30 26 14 44 17 -10 -8 24 -19 -20 39 22 28 32 33 -26 42 -23 29 -13 -11 -3 -15 -9 -32 37 -37 -22 -24 47 -29 -25 -7 -38 -1 -30 -34 49 52 -14 -49 -39 -44
right_child=1 6 5 -5 -6 11 16 12 15 10 -12 21 20 23 -16 -17 -18 18 19 -21 35 27 38 41 25 -27 -28 40 45 -31 34 -33 46 -35 -36 36 43 51 -40 -41 -42 -43 48 -45 -46 -47 -48 50 -50 -51 -52 -53 -54
leaf_value=-0.18886189485749891 0.60405306421477223 -0.20727527923054165 1.1573728655576705 3.6531793182236809 2.9380399045944214 -0.084335592985153196 1.1983771151920843 -0.2553969282135567 1.6365006007466996 -0.01835628365648204 0.93242210833355776 0.057905305277916687 -0.0086974419632719624 0.064144617725502354 0.39696042017503219 0.87460553910997174 0.50024567376012385 0.32090168691107207 -0.22360526169042386 -0.030584504799985819 0.19911608778912088 0.61685010522603978 0.47178833062648767 0.42007039875365221 0.2032653753897723 -0.16768743293948024 0.075692584776878347 0.18159348802133041 0.01925533484019663 0.34044921374839282 0.077836183637380596 0.059775046156002924 0.37246873240470885 -0.18989470366092406 0.37580955827236179 0.39507482409477235 0.035310227170586579 -0.00047770248992102491 0.20982405969500539 0.081472674124949684 0.42298512152263096 0.63575889395177365 -0.30326950836181638 0.20717566344088739 -0.045672861602571273 -0.13005400630831718 0.24495035003338539 -0.088513672085184791 -0.20593873097050572 -0.074784626360325249 -0.12952387225627901 -0.054591202023236647 -0.28676307159662245
leaf_weight=31 29 27 30 28 20 21 29 373 21 29 28 31 54 22 22 27 23 28 167 272 23 24 25 26 34 1380 25 22 23 23 20 26 25 478 20 21 20 21 20 37 21 20 20 21 27 20 28 57 31 68 45 23 20
leaf_count=31 29 27 30 28 20 21 29 373 21 29 28 31 54 22 22 27 23 28 167 272 23 24 25 26 34 1380 25 22 23 23 20 26 25 478 20 21 20 21 20 37 21 20 20 21 27 20 28 57 31 68 45 23 20
internal_value=-0.00496209 1.2131 -0.0629346 2.31906 1.5567 0.320215 0.40206 -0.120701 0.727717 0.546217 0.3572 0.101463 -0.138429 0.190674 -0.159213 1.20793 0.889588 -0.163692 -0.0785349 -0.104012 0.00834134 0.244692 0.1652 0.340649 -0.18125 -0.158768 -0.154389 0.413166 0.0769813 0.178248 0.123777 -0.0762695 0.23442 -0.218605 0.226823 0.129205 0.215378 0.0494633 0.35536 -0.0513961 0.299482 0.513848 -0.216911 0.123339 -0.122205 -0.0501909 0.305101 -0.0733432 -0.256123 -0.0455329 -0.106606 -0.0287643 -0.295016
internal_weight=4006 182 3824 77 49 501 105 3323 175 127 97 326 3144 179 2754 48 52 2732 467 439 390 209 142 121 2265 1414 117 67 97 54 69 53 75 851 40 129 62 67 45 261 43 46 92 41 58 43 53 224 71 122 102 44 40
internal_count=4006 182 3824 77 49 501 105 3323 175 127 97 326 3144 179 2754 48 52 2732 467 439 390 209 142 121 2265 1414 117 67 97 54 69 53 75 851 40 129 62 67 45 261 43 46 92 41 58 43 53 224 71 122 102 44 40
is_linear=0
shrinkage=0.03


Tree=20
num_leaves=58
num_cat=0
split_feature=1 3 1 1 3 2 3 1 4 1 2 0 4 2 4 2 0 2 1 4 1 1 0 1 4 3 2 2 3 4 0 3 0 4 2 2 2 0 4 0 2 1 2 0 2 1 1 4 2 2 4 1 3 1 4 1 4
split_gain=295735 170668 88483.4 85663 46689.5 25598.7 19228.8 15946 16082 15617.4 12489.2 9027.81 8519.9 7501.68 7168.58 6986.22 6535.79 6120.76 4016.85 3330.12 2931 2445.48 2405.81 2239.39 2230.13 1759.55 1758.54 2642.27 1490.33 1415.23 1414.49 1364.67 987.526 965.948 776.986 928.902 765.017 720.017 715.407 655.441 589.691 584.215 500.005 498.955 399.548 695.761 331.041 287.424 285.844 361.764 264.777 233.532 144.878 119.47 130.673 2.84844 0.0291733
threshold=301.50000000000006 9.5000000000000018 143.50000000000003 501.50000000000006 5.5000000000000009 14.500000000000002 1.5000000000000002 217.50000000000003 0.048840121653050281 63.850000000000009 11.500000000000002 5.5000000000000009 0.15075757575757578 5.5000000000000009 0.012579113924050636 8.5000000000000018 8.5000000000000018 9.5000000000000018 87.15000000000002 0.007224880382775121 184.50000000000003 99.750000000000014 3.5000000000000004 70.200000000000017 0.039656329286448182 17.500000000000004 14.500000000000002 16.500000000000004 7.5000000000000009 0.05961265103056148 9.5000000000000018 17.500000000000004 3.5000000000000004 0.023469631316098711 8.5000000000000018 10.500000000000002 19.500000000000004 2.5000000000000004 0.020942982456140354 3.5000000000000004 15.500000000000002 51.95000000000001 1.0000000180025095e-35 10.500000000000002 5.5000000000000009 74.100000000000009 85.90000000000002 0.024442519379266055 9.5000000000000018 12.500000000000002 0.076018161805173387 166.15000000000003 16.500000000000004 34.300000000000004 0.076997183933600138 239.75000000000003 0.055648457822370871
decision_type=2 2 2 2 2 2 2 2 2 2 2 2 2 2 2 2 2 2 2 2 2 2 2 2 2 2 2 2 2 2 2 2 2 2 2 2 2 2 2 2 2 2 2 2 2 2 2 2 2 2 2 2 2 2 2 2 2
left_child=2 3 6 15 7 32 9 8 13 41 25 12 19 -4 -9 -2 -7 38 29 28 24 43 31 -24 33 42 -22 -28 46 37 39 -21 -3 51 -23 -36 -37 -11 -15 -20 -30 53 -6 48 45 -31 -8 -29 -13 -50 56 -12 55 -1 -55 -44 -43
right_child=1 5 4 -5 10 16 11 14 -10 18 20 21 -14 17 -16 -17 -18 -19 30 22 26 34 23 -25 -26 -27 27 47 40 44 -32 -33 -34 -35 35 36 -38 -39 -40 -41 -42 50 52 -45 -46 -47 -48 -49 49 -51 -52 -53 -54 54 -56 -57 -58
